tree
version=v3
num_class=1
num_tree_per_iteration=1
label_index=0
max_feature_idx=36
objective=regression
feature_names=store_name mall_name chain_name address lat lon age_0_19 age_20_39 age_40_59 age_60_79 age_80_90 income_all_households income_singles income_couple_without_children income_couple_with_children income_other_households income_single_parent_with_children couple_children_0_to_5_years couple_children_18_or_above couple_children_6_to_17_years couple_without_children single_parent_children_0_to_5_years single_parent_children_18_or_above single_parent_children_6_to_17_years singles lv1_desc lv2_desc sales_channel_name bus_stops_count Mangler_viktighetsnivå Standard_holdeplass Lokalt_knutepunkt Nasjonalt_knutepunkt Regionalt_knutepunkt Annen_viktig_holdeplass stores_count_lt_1km dist_to_center
feature_infos=-1:510:641 -1:367:322:31:338:195:9:108:182:166:5:28:224:323:22:110:226:284:362:391:411:136:185:192:331:361:395:18:109:175:204:206:243:360:393:425:431:10:11:43:46:56:60:78:98:154:242:377:378:415:1:32:41:42:112:171:215:264:274:285:312:350:416:430:30:34:39:48:50:53:58:66:91:106:125:187:209:230:240:247:248:381:387:400:420:2:4:12:14:24:25:59:77:79:95:107:127:132:133:146:159:165:170:202:239:244:245:259:263:271:279:282:290:302:307:314:335:359:384:385:401:406:408:7:13:21:27:29:35:36:40:45:54:63:76:93:99:143:156:164:183:190:193:196:200:208:210:213:231:237:238:241:255:258:283:294:300:313:326:334:337:343:351:353:374:375:382:394:397:409:410:6:8:23:33:51:57:62:64:65:67:83:100:141:148:158:160:161:178:179:199:203:214:217:221:222:225:227:229:232:233:236:246:254:266:267:269:273:280:292:298:303:311:319:328:336:344:356:372:373:376:402:422:429 -1:204:142:54:40:133:170:230:272:149:234:190:48:92:83:197:53:231:34:106:178:179:253:95:148:26:74:186:88:135:244:134:236:46:62:86:13:63:138:84:90:141:162:248:192:85:214:5:36:9:78:221:275:29:67:167:208:32:52:102:155:166:199:247:262:274:17:22:43:45:68:80:127:159:222:246:270:11:27:66:72:79:235:263:42:114:116:119:125:156:180:224:250:14:55:121:153:225:18:65:91:113:120:160:201:226:232:240:243:47:57:118:130:152:154:175:257:259:94:105:117:168:171:188:202:203:219:242:252:273:3:4:10:28:33:37:49:50:71:98:103:110:111:112:143:157:165:172:193:216:218:220:258:265 -1:5206:4916:2117:4926:4841:4933:4821:4907:2447:4865:4940:4870:429:1453:2915:4852:4868:5022:2726:2802:2876:4820:4834:4857:5559:2119:4864:5357:590:1345:2044:2098:3073:4075:4090:4875:4876:4879:4894:4906:5165:5756:143:427:441:584:1853:2115:2382:2517:2543:3021:3594:3826:4081:4354:4588:4643:4781:4829:4831:4855:4872:4883:5063:5525:5531:6051:6141:354:675:698:1138:1228:1241:1300:2189:2324:2565:2775:2859:2898:3231:3254:3633:3774:4234:4253:4367:4416:4604:4730:4810:4840:4863:4866:4871:4881:4889:4915:5533:5661:5713:5722:6053:6235:6243:17:251:428:438:536:696:726:727:740:886:919:921:957:1088:1089:1167:1269:1489:1595:1849:2110:2118:2148:2261:2306:2344:2460:2472:2527:2655:2758:2759:2850:2925:3282:3309:3631:3659:3687:3820:3825:4078:4140:4296:4377:4391:4406:4430:4440:4585:4592:4724:4823:4849:4861:4884:4890:4891:4903:4908:4909:5034:5069:5071:5361:5542:5546:5557:5757:6040:6089:6098:104:107:166:215:258:293:335:377:442:451:581:716:725:733:845:908:1093:1195:1197:1389:1413:1532:1646:1653:1656:1691:1739:1788:1841:1944:2005:2010:2015:2022:2071:2196:2232:2268:2286:2311:2321:2333:2351:2357:2362:2420:2428:2514:2531:2534:2538:2549:2580:2721:2849:2852:2878:2917:2919:3031:3043:3050:3096:3097:3099:3112:3158:3181:3240:3362:3472:3565:3611:3641:3660:3746:3802:3833:3842:3904:4004:4020:4073:4123:4129:4220:4231:4257:4341:4362:4370:4383:4401:4435:4456:4473:4498:4722:4878:4886:4887:4900:4905:4910:4914:4918:4919:4934:4937:4946:4952:4953:4955:4957:4966:5015:5038:5039:5062:5144:5180:5238:5301:5308:5322:5378:5394:5471:5530:5532:5537:5555:5606:5608:5676:5855:5870:5880:5911:5989:6118:6138:6162:6172:6176:6203:6265:6318 [58.021429659812803:71.040212632113594] [4.6258894900173102:31.118934629999998] [0:1919] [0:2245] [2:1576] [0:832] [0:280] [292000:861900] [224200:462500] [0:904800] [0:1312100] [0:1109600] [0:572800] [0:1631] [0:497] [0:1613] [0:1066] [0:171] [0:162] [0:309] [4:1700] -1:1:2:0 -1:14:1:5:3:7:10:12:16:8:0:2:4:6:13:11:9 -1:74:33:14:35:69:58:41:5:75:30:9:34:26:28:65:68:24:57:18:47:44:21:66:70:22:73:59:40:72:31:49:62:53:60:77:37:83:38:61:63:67:86:50:78:17:48:7:2:12:87:80:13:16:20:84:55:64:85:79:25:51:8:29:15:27:36:52:4:11:54:81:1:43:46:71:3:23:32:42:39:45:56 [0:57] [0:39] [0:22] [0:18] [0:10] [0:13] [0:11] [0:6.9460139910992273] [0:830668.0252894744]
tree_sizes=1036 1089 1232 1244 1155 1245 1037 1077 1219 1005 1156 1011 1056 1121 1220 1259 1033 1029 1039 1193 1046 1204 1038 1035 992 1235 1005 1094 1035 1078 1203 1042 1187 1046 1178 1088 1116 1148 1091 1206 1089 1060 1080 1214 1206 1115 1091 1113 1099 1179 1125 1109 1208 1193 1075 1039 1099 1145 1130 1125 1084 1128 1162 984 1088 1040 1090 1089 992 1033 1072 1101 1114 1153 928 1097 1045 1108 1059 1002 1033 1111 1044 1050 962 1021 1069 978 1116 1067 1008 1079 1036 1044 1078 1036 1018 1129 1008 1110

Tree=0
num_leaves=10
num_cat=5
split_feature=27 27 27 27 27 6 11 13 13
split_gain=2133.37 475.714 279.237 81.9152 67.271 31.0263 24.1157 16.4103 15.1795
threshold=0 1 2 3 4 107.50000000000001 375350.00000000006 748950.00000000012 527300.00000000012
decision_type=9 9 9 9 9 2 2 2 2
left_child=2 4 5 6 -2 8 -3 -8 -1
right_child=1 3 -4 -5 -6 -7 7 -9 -10
leaf_value=1.6124583500136693 1.5082487415333934 1.6205572988642678 1.6348171075358844 1.5683648910098786 1.5403845573453951 1.7291863444040299 1.5867668433615154 1.6406306816158167 1.6940894496656265
leaf_weight=38 1272 374 1255 2433 1833 496 994 62 462
leaf_count=38 1272 374 1255 2433 1833 496 994 62 462
internal_value=1.58344 1.556 1.66778 1.57959 1.52689 1.70799 1.59838 1.5903 1.68867
internal_weight=0 6968 2251 3863 3105 996 1430 1056 500
internal_count=9219 6968 2251 3863 3105 996 1430 1056 500
cat_boundaries=0 3 6 8 11 14
cat_threshold=2017724416 2318467122 2048 1179680 872677708 8455682 1073741824 2 2183139332 131072 4219004 0 536870912 67074
is_linear=0
shrinkage=1


Tree=1
num_leaves=10
num_cat=5
split_feature=27 27 27 27 27 36 28 19 36
split_gain=1730.65 349.551 305.907 54.5786 32.132 24.6606 24.0766 19.5865 18.8151
threshold=0 1 2 3 4 4435.1618192849201 7.5000000000000009 71.500000000000014 6359.6434445707928
decision_type=9 9 9 9 9 2 2 2 2
left_child=1 7 3 -2 -4 -3 -5 8 -1
right_child=2 5 4 6 -6 -7 -8 -9 -10
leaf_value=0.10695577923881852 -0.067734269358787 0.043717948805097807 0.0086655159725908901 -0.050169550064025542 -0.013166958487121988 0.012337026704984313 -0.026031812526527223 0.12720091347224563 0.052512793588942078
leaf_weight=350 1272 1374 908 990 2397 352 879 579 118
leaf_count=350 1272 1374 908 990 2397 352 879 579 118
internal_value=0 0.0658498 -0.0284863 -0.0508312 -0.00704256 0.0373289 -0.0388195 0.111698 0.0940666
internal_weight=0 2773 6446 3141 3305 1726 1869 1047 468
internal_count=9219 2773 6446 3141 3305 1726 1869 1047 468
cat_boundaries=0 3 5 8 11 14
cat_threshold=2017724416 2318467122 2144 1073741824 2147483650 1179680 876872012 8455683 0 536870912 67074 2183139332 131072 4218908
is_linear=0
shrinkage=0.1


Tree=2
num_leaves=10
num_cat=6
split_feature=2 27 2 2 27 27 28 12 28
split_gain=2101.23 413.689 151.383 83.1292 61.4361 57.0771 20.3801 15.6966 15.5901
threshold=0 1 2 3 4 5 16.500000000000004 285750.00000000006 6.5000000000000009
decision_type=9 9 9 9 9 9 2 2 2
left_child=2 4 -1 -3 -2 8 7 -7 -5
right_child=1 3 -4 5 -6 6 -8 -9 -10
leaf_value=0.082501881368080746 -0.061013698057566283 0.049315821884195067 0.16739818056042793 -0.02147479986639278 -0.032305448943359259 -0.0018190217936958665 0.033237649482300638 0.018508556798952004 -0.0043661758560999461
leaf_weight=485 1272 342 591 990 2344 900 361 622 1312
leaf_count=485 1272 342 591 990 2344 900 361 622 1312
internal_value=0 -0.0174677 0.130605 0.00261255 -0.0426527 -0.00121916 0.0115553 0.00623088 -0.0118427
internal_weight=0 8143 1076 4527 3616 4185 1883 1522 2302
internal_count=9219 8143 1076 4527 3616 4185 1883 1522 2302
cat_boundaries=0 8 11 19 28 31 34
cat_threshold=67109376 1077954832 290014208 2147484672 2113664 67633216 536875008 1216 1179680 876905292 8455683 512 4212736 285213696 2147484672 16512 0 0 1152 536870912 2148540416 70254608 0 134225984 262148 4194305 25169920 65536 0 536870912 67074 1157751680 1076367362 3721476
is_linear=0
shrinkage=0.1


Tree=3
num_leaves=10
num_cat=7
split_feature=2 27 2 2 27 27 11 27 7
split_gain=1718.45 333.815 126.274 71.8308 58.5571 33.3341 13.0745 18.5079 10.6451
threshold=0 1 2 3 4 5 418050.00000000006 6 68.500000000000014
decision_type=9 9 9 9 9 9 2 9 2
left_child=2 5 -1 -3 8 -2 -6 -8 -5
right_child=1 3 -4 4 6 -7 7 -9 -10
leaf_value=0.15535187603001999 -0.055994511705272476 0.043085030714614329 0.078886258271494633 -0.027820895578335149 0.02060060079266042 -0.032630767584332206 0.024198676112910576 -0.0036029576714240383 -0.0098383531958241271
leaf_weight=525 1144 352 570 429 730 1997 307 919 2246
leaf_count=525 1144 352 570 429 730 1997 307 919 2246
internal_value=0 -0.0159298 0.116977 0.00010721 -0.00316091 -0.0414153 0.00984863 0.00320723 -0.0128209
internal_weight=0 8124 1095 4983 4631 3141 1956 1226 2675
internal_count=9219 8124 1095 4983 4631 3141 1956 1226 2675
cat_boundaries=0 8 11 19 28 31 34 37
cat_threshold=67109376 1077954832 290014208 2147484672 2121856 67633216 536875008 1216 1179680 876872012 8455683 0 1073742096 4784128 0 2097152 67108928 536875008 64 536870912 2148540420 69206040 0 134217792 4 4194337 25169920 65536 1157751680 1074303490 3688708 0 536870912 1026 2684616704 2281766912 8200
is_linear=0
shrinkage=0.1


Tree=4
num_leaves=10
num_cat=6
split_feature=2 26 2 35 35 26 2 35 2
split_gain=1355.1 165.067 104.453 85.3053 57.392 43.4002 23.3781 18.3682 13.9348
threshold=0 1 2 3.3497501700808394 2.8029010331479989 3 4 5.1387309967764621 5
decision_type=9 9 9 2 2 9 9 2 9
left_child=2 4 -1 5 -2 -3 -6 8 -5
right_child=1 3 -4 7 6 -7 -8 -9 -10
leaf_value=0.065084869583300384 -0.051459918346424098 0.011213280473862101 0.13542788253126661 0.034650395354673777 0.021859303462719925 -0.025602071494709416 -0.024683349574015526 0.017864966098585826 -0.00048376600342496621
leaf_weight=488 1096 375 589 109 101 1709 1753 1078 1884
leaf_count=488 1096 375 589 109 101 1709 1753 1078 1884
internal_value=0 -0.0140882 0.104808 -0.00318362 -0.032936 -0.0188584 -0.0219517 0.00731546 0.00141266
internal_weight=0 8105 1077 5155 2950 2084 1854 3071 1993
internal_count=9182 8105 1077 5155 2950 2084 1854 3071 1993
cat_boundaries=0 8 9 17 18 24 32
cat_threshold=67109376 1077954832 289948672 2147484672 2113664 67633216 536875008 5312 7746 512 4212736 285213696 1024 16512 0 0 5248 276 0 65540 0 0 64 128 0 0 69206016 0 1056768 262144 4194305 16777216
is_linear=0
shrinkage=0.1


Tree=5
num_leaves=10
num_cat=5
split_feature=2 35 2 2 2 1 35 35 19
split_gain=1102.19 128.494 86.0033 51.4494 40.497 33.2439 20.2358 9.01621 9.31374
threshold=0 2.9174053685313028 1 2 3 4 5.1387309967764621 2.249904835165133 21.500000000000004
decision_type=9 2 9 9 9 9 2 2 2
left_child=2 3 -1 -2 -3 -6 -7 8 -5
right_child=1 4 -4 7 5 6 -8 -9 -10
leaf_value=0.14297598422217994 0.031049357819844605 0.038306614192818153 0.072973635930229513 -0.0052894946855622455 0.047767100187542551 -0.010676827137233905 0.0030826229332605866 -0.021057296215010644 -0.037648712990942863
leaf_weight=315 123 214 749 123 105 3381 1507 695 1970
leaf_count=315 123 214 749 123 105 3381 1507 695 1970
internal_value=0 -0.0125874 0.0952016 -0.0294454 -0.00311179 -0.00503213 -0.00634157 -0.0322506 -0.0359343
internal_weight=0 8118 1064 2911 5207 4993 4888 2788 2093
internal_count=9182 8118 1064 2911 5207 4993 4888 2788 2093
cat_boundaries=0 8 16 25 33 46
cat_threshold=67109376 1077963024 289947648 2147484672 2113664 67633216 536875008 5312 0 1073741824 0 0 2097152 64 4096 64 0 2147483648 1024 0 0 1073741828 0 0 65536 536870912 1114112 70255616 0 134225984 262144 1 16777216 268435456 0 0 20480 0 4194304 0 1 0 0 262148 0 134217728
is_linear=0
shrinkage=0.1


Tree=6
num_leaves=10
num_cat=2
split_feature=26 26 28 14 18 18 10 4 28
split_gain=422.379 141.33 32.9664 18.4357 15.8393 11.2602 10.3498 10.1034 9.98356
threshold=0 1 4.5000000000000009 657700.00000000012 155.50000000000003 9.5000000000000018 82.500000000000014 59.664530786662304 5.5000000000000009
decision_type=9 9 2 2 2 2 2 2 2
left_child=3 8 5 -1 7 -3 -7 -4 -2
right_child=1 2 4 -5 -6 6 -8 -9 -10
leaf_value=0.0097628733894158607 -0.043199260457958535 0.0083125503585440939 -0.0030010528313650807 0.048457228237026938 -0.041854906698385569 -0.019500266625366455 0.001175024361801529 0.0081225690627719834 -0.026792386338692034
leaf_weight=162 750 195 1156 1546 74 1333 253 2474 1239
leaf_count=162 750 195 1156 1546 74 1333 253 2474 1239
internal_value=0 -0.0102264 -0.00184808 0.0447546 0.00344085 -0.013078 -0.0159551 0.00447223 -0.0330101
internal_weight=0 7474 5485 1708 3704 1781 1586 3630 1989
internal_count=9182 7474 5485 1708 3704 1781 1586 3630 1989
cat_boundaries=0 1 2
cat_threshold=292 2626
is_linear=0
shrinkage=0.1


Tree=7
num_leaves=10
num_cat=5
split_feature=27 27 27 27 24 28 28 27 28
split_gain=621.044 115.108 106.023 20.4144 14.8361 11.016 10.0866 9.7709 9.52434
threshold=0 1 2 3 28.500000000000004 5.5000000000000009 7.5000000000000009 4 16.500000000000004
decision_type=9 9 9 9 2 2 2 9 2
left_child=1 4 3 -2 -1 -4 -5 -6 -3
right_child=2 8 5 6 7 -7 -8 -9 -10
leaf_value=0.012658919591903579 -0.04267857262171898 0.019377657213805726 -0.012750898977591128 -0.031489065133125771 0.034452622865647285 -0.00049864093998290917 -0.015219864873078075 0.074458513910288224 0.041373195511692912
leaf_weight=68 1160 1648 1217 973 177 2029 845 793 272
leaf_count=68 1160 1648 1217 973 177 2029 845 793 272
internal_value=0 0.0376851 -0.0178907 -0.031532 0.0647687 -0.00519701 -0.0240107 0.0686854 0.0225803
internal_weight=0 2958 6224 2978 1038 3246 1818 970 1920
internal_count=9182 2958 6224 2978 1038 3246 1818 970 1920
cat_boundaries=0 3 5 8 11 12
cat_threshold=4167305216 2318467122 2144 805306368 2147549186 1179680 608469320 8455683 0 536870912 66562 268435456
is_linear=0
shrinkage=0.1


Tree=8
num_leaves=10
num_cat=7
split_feature=2 27 2 2 27 27 27 12 15
split_gain=786.928 158.592 63.9526 30.7287 33.6431 29.3858 18.6989 10.5187 7.68874
threshold=0 1 2 3 4 5 6 286150.00000000006 618750.00000000012
decision_type=9 9 9 9 9 9 9 2 2
left_child=2 5 -1 -3 -5 -2 7 8 -6
right_child=1 3 -4 4 6 -7 -8 -9 -10
leaf_value=0.11004054629542366 -0.038973771565168194 0.030216099610025783 0.054993892287570047 0.053313997121560958 0.016400306968007466 -0.019028103974295451 -0.0069611958867589491 0.018995626725418935 -0.0047343784797962488
leaf_weight=461 1169 359 638 105 233 2686 2420 511 642
leaf_count=461 1169 359 638 105 233 2686 2420 511 642
internal_value=0 -0.0105721 0.0792221 0.00262757 0 -0.0252631 -0.00158155 0.00751337 0.00044572
internal_weight=0 8125 1099 4270 3911 3855 3806 1386 875
internal_count=9224 8125 1099 4270 3911 3855 3806 1386 875
cat_boundaries=0 8 11 19 28 30 33 36
cat_threshold=67109376 1077963024 21578776 1024 2113664 67633216 536875009 5312 17998112 876905292 10552835 0 1073742096 4259840 0 2097152 64 536875008 64 536870912 2148532229 337641472 0 134225984 4 4194336 25165824 65536 671088640 2148597776 0 536870912 66562 2418282516 167903232 4202600
is_linear=0
shrinkage=0.1


Tree=9
num_leaves=10
num_cat=2
split_feature=25 25 36 28 10 10 28 36 18
split_gain=160.565 38.181 24.9874 11.6306 9.77019 9.17434 7.18407 6.67902 6.37911
threshold=0 1 2243.0211695814473 5.5000000000000009 7.5000000000000009 127.50000000000001 1.5000000000000002 480.81379958658084 147.50000000000003
decision_type=1 1 2 2 2 2 2 2 2
left_child=3 6 4 -1 -3 -4 -2 -8 -9
right_child=1 2 5 -5 -6 -7 7 8 -10
leaf_value=-0.031605961935686114 0.0023917508466497297 0.018915116802149523 -0.020435467924971654 -0.016156940956177434 0 0.026000199998845383 0.0034372705990936277 0.017425870088226682 -0.0015143683055648489
leaf_weight=878 610 368 710 1539 1100 38 530 3303 148
leaf_count=878 610 368 710 1539 1100 38 530 3303 148
internal_value=0 0.00807079 -0.00256156 -0.0219311 0.00480995 -0.0175525 0.0132882 0.0148594 0.0165001
internal_weight=0 6807 2216 2417 1468 748 4591 3981 3451
internal_count=9224 6807 2216 2417 1468 748 4591 3981 3451
cat_boundaries=0 1 2
cat_threshold=4 2
is_linear=0
shrinkage=0.1


Tree=10
num_leaves=10
num_cat=6
split_feature=2 2 35 2 25 13 35 25 25
split_gain=638.906 77.3388 84.6909 43.2311 23.0431 14.7071 10.1977 9.58801 7.34832
threshold=0 1 2.9174053685313028 2 3 669250.00000000012 5.8763332563158359 4 5
decision_type=9 9 2 9 1 2 2 1 1
left_child=3 -2 8 -1 -4 6 -6 -8 -3
right_child=1 2 4 -5 5 -7 7 -9 -10
leaf_value=0.10618715456864372 0.026547307697980634 -0.033588490017244794 -0.014184858841593177 0.055116084474242981 -0.0041185982564064475 0.015747192167997501 -0.0018450251593873446 0.029899459475166285 -0.021218134722834101
leaf_weight=392 563 898 1419 555 2601 561 154 183 1898
leaf_count=392 563 898 1419 555 2601 561 154 183 1898
internal_value=0 -0.00874066 -0.0113979 0.0775549 -0.00341989 0.000833806 -0.0018805 0.0142305 -0.0253313
internal_weight=0 8277 7714 947 4918 3499 2938 337 2796
internal_count=9224 8277 7714 947 4918 3499 2938 337 2796
cat_boundaries=0 8 17 25 26 27 28
cat_threshold=67109376 3221252368 21578776 1024 2105472 67633220 536875009 5312 536870912 5242885 338690048 0 134234176 262272 4194464 25165824 524352 0 1073741840 4276224 0 2097152 64 536875008 64 4 2 4
is_linear=0
shrinkage=0.1


Tree=11
num_leaves=10
num_cat=2
split_feature=25 25 35 35 14 35 13 35 16
split_gain=106.346 25.0114 44.0931 23.2178 9.43417 9.76374 9.08854 7.76007 5.48723
threshold=0 1 3.9219243190762363 3.6242520361853052 682600.00000000012 0.89587973461402759 751850.00000000012 5.2548844000372066 443950.00000000006
decision_type=1 1 2 2 2 2 2 2 2
left_child=3 4 6 8 -2 -6 -3 -4 -1
right_child=1 2 7 -5 5 -7 -8 -9 -10
leaf_value=-0.031537112843221096 0 -0.018395272058622868 0.0035006386068190255 -0.0080403338002792823 0.00059521598389112738 0.014791345406186577 0.035926111188989092 0.021055127041943903 -0.009523488273084392
leaf_weight=961 624 1048 643 1266 635 3332 27 498 190
leaf_count=961 624 1048 643 1266 635 3332 27 498 190
internal_value=0 0.00659252 -0.00198383 -0.0178235 0.0108175 0.0126177 -0.0166663 0.0115059 -0.0282437
internal_weight=0 6807 2216 2417 4591 3967 1075 1141 1151
internal_count=9224 6807 2216 2417 4591 3967 1075 1141 1151
cat_boundaries=0 1 2
cat_threshold=4 2
is_linear=0
shrinkage=0.1


Tree=12
num_leaves=10
num_cat=4
split_feature=27 27 27 27 12 11 19 19 33
split_gain=318.886 62.0402 55.6858 8.38888 7.83309 9.05677 6.70848 6.54385 6.49901
threshold=0 1 2 3 268450.00000000006 348350.00000000006 99.500000000000014 79.500000000000014 4.5000000000000009
decision_type=9 9 9 9 2 2 2 2 2
left_child=1 3 8 -1 5 -4 -3 -5 -2
right_child=2 6 4 7 -6 -7 -8 -9 -10
leaf_value=0.028025149723054522 -0.027080086683755406 0.017066428986691827 0.0008224422207314231 0.038190429712173395 -0.0024082586243897412 -0.017703579043380834 0.0031881006238563409 0.060288618739473748 0
leaf_weight=553 2201 1222 319 431 2479 892 594 422 95
leaf_count=553 2201 1222 319 431 2479 892 594 422 95
internal_value=0 0.0253703 -0.0135972 0.0412882 -0.00581064 -0.0124999 0.0126729 0.049008 -0.025862
internal_weight=0 3222 5986 1406 3690 1211 1816 853 2296
internal_count=9208 3222 5986 1406 3690 1211 1816 853 2296
cat_boundaries=0 3 5 8 9
cat_threshold=4167305216 2318471218 10344 1883244544 2147549186 1212448 876642624 8455170 1346373632
is_linear=0
shrinkage=0.1


Tree=13
num_leaves=10
num_cat=2
split_feature=35 1 13 14 6 1 6 21 9
split_gain=31.1381 19.5241 7.30399 7.23917 7.62137 5.82681 5.42711 4.54691 4.94928
threshold=2.249904835165133 0 555200.00000000012 636350.00000000012 13.500000000000002 1 27.500000000000004 10.500000000000002 110.50000000000001
decision_type=2 9 2 2 2 9 2 2 2
left_child=2 -2 -1 -3 -5 -6 -4 -7 -9
right_child=1 3 6 4 5 7 -8 8 -10
leaf_value=-0.024635523845068136 0.044000062917525902 -0.0059459010593966889 0.011754591860377441 0.020444723105897535 0.026216412560262678 0.0056808426700433404 -0.0082298668386861975 -0.0073321880035542852 0.0024215627123966785
leaf_weight=288 110 767 129 285 103 2629 2255 710 1932
leaf_count=288 110 767 129 285 103 2629 2255 710 1932
internal_value=0 0.00377911 -0.00903334 0.00295653 0.00423761 0.00330516 -0.00698411 0.00272818 -5.13141e-05
internal_weight=0 6536 2672 6426 5659 5374 2384 5271 2642
internal_count=9208 6536 2672 6426 5659 5374 2384 5271 2642
cat_boundaries=0 11 24
cat_threshold=268435456 0 0 20480 256 64 0 1 0 0 262148 2151677952 0 0 0 0 33554432 8 4 0 0 0 32768 2048
is_linear=0
shrinkage=0.1


Tree=14
num_leaves=10
num_cat=6
split_feature=2 27 2 2 27 27 12 14 19
split_gain=450.425 88.1282 23.0564 21.4084 19.3989 15.8028 8.9039 7.60504 8.03762
threshold=0 1 2 3 4 5 286600.00000000006 800600.00000000012 23.500000000000004
decision_type=9 9 9 9 9 9 2 2 2
left_child=3 5 -3 -1 7 -2 -6 8 -4
right_child=1 2 4 -5 6 -7 -8 -9 -10
leaf_value=0.089695880630265012 -0.024072177619195077 0.024188784344927737 0.00086297259936218666 0.049027481259670685 0.0026533220328585436 -0.010820900918635825 0.018834744938639961 0.0027617740840327303 -0.013979224845343852
leaf_weight=385 2047 442 467 477 991 1990 581 692 1136
leaf_count=385 2047 442 467 477 991 1990 581 692 1136
internal_value=0 -0.00706596 0.00280509 0.0684615 0.000203744 -0.0176798 0.00882701 -0.00554559 -0.00941083
internal_weight=0 8346 4309 862 3867 4037 1572 2295 1603
internal_count=9208 8346 4309 862 3867 4037 1572 2295 1603
cat_boundaries=0 8 11 19 27 30 33
cat_threshold=67109376 3221244176 21577736 2147484672 2097280 67633216 536875009 5312 68329888 1961657160 10554883 536870912 5308416 270533648 0 24640 4 0 16777216 0 1073741840 4276224 0 2097152 64 536875008 64 1128350208 167772198 1622292 1179680 608174400 66562
is_linear=0
shrinkage=0.1


Tree=15
num_leaves=10
num_cat=7
split_feature=2 27 2 2 27 2 27 28 30
split_gain=369.753 70.9567 21.1675 18.8604 17.5864 16.1136 11.2723 9.76797 7.31547
threshold=0 1 2 3 4 5 6 7.5000000000000009 1.5000000000000002
decision_type=9 9 9 9 9 9 9 2 2
left_child=3 5 -3 -1 -4 -2 -7 -8 -6
right_child=1 2 4 -5 8 6 7 -9 -10
leaf_value=0.086757563709748797 0.017580900475582525 0.021258565204079906 0.010511545669229256 0.047185010048450694 -0.0071469072023470697 -0.0098586996846719652 -0.028337281435812746 -0.014380744979448148 0.005710212937257912
leaf_weight=291 122 516 1088 581 2171 1559 1221 1137 522
leaf_count=291 122 516 1088 581 2171 1559 1221 1137 522
internal_value=0 -0.00641242 0.00245657 0.0616695 -5.53424e-05 -0.0159275 -0.017113 -0.0216819 -0.00449254
internal_weight=0 8336 4297 872 3781 4039 3917 2358 2693
internal_count=9208 8336 4297 872 3781 4039 3917 2358 2693
cat_boundaries=0 8 11 19 27 30 39 42
cat_threshold=67109376 3221244176 21577752 2147484672 2097280 67633216 536875009 5312 68329888 1953268552 11603459 536870912 5308416 338691072 0 24640 132 32 16777216 0 1073741824 65536 0 0 64 536875008 64 2820931600 2148597776 4202600 0 1 2147483648 0 134217728 262144 1073741952 0 524352 67117312 819720 11534849
is_linear=0
shrinkage=0.1


Tree=16
num_leaves=10
num_cat=2
split_feature=25 35 35 25 13 13 13 13 35
split_gain=50.2656 15.6492 15.5745 15.0416 8.40964 7.47123 6.81107 6.26617 6.70443
threshold=0 2.249904835165133 4.1971736807086968 1 705400.00000000012 613650.00000000012 555200.00000000012 662550.00000000012 1.0000000180025095e-35
decision_type=1 2 2 1 2 2 2 2 2
left_child=2 3 -1 6 -5 -3 -2 8 -8
right_child=1 5 -4 4 -6 -7 7 -9 -10
leaf_value=-0.01894476466787048 -0.015655998069377907 0.0043393253384490394 -0.0020322552947449873 -0.019516721499714593 0.031239845790074022 0.012826233367332879 -0.0026128695258299198 -0.010225502774916908 0.013912146149915755
leaf_weight=1444 170 2966 964 558 29 1799 314 195 738
leaf_count=1444 170 2966 964 558 29 1799 314 195 738
internal_value=0 0.00448514 -0.0123369 -0.00278692 -0.0163414 0.00762575 0.00255161 0.00534807 0.00860731
internal_weight=0 6769 2408 2004 587 4765 1417 1247 1052
internal_count=9177 6769 2408 2004 587 4765 1417 1247 1052
cat_boundaries=0 1 2
cat_threshold=4 2
is_linear=0
shrinkage=0.1


Tree=17
num_leaves=10
num_cat=2
split_feature=25 35 35 25 16 13 13 13 9
split_gain=40.7711 12.781 12.5901 11.9959 7.13835 6.92692 5.53513 5.49506 5.14241
threshold=0 2.249904835165133 3.1567740231385479 1 389900.00000000006 705400.00000000012 613650.00000000012 555200.00000000012 185.50000000000003
decision_type=1 2 2 1 2 2 2 2 2
left_child=2 3 -1 7 -3 -5 -6 -2 -9
right_child=1 4 -4 5 6 -7 -8 8 -10
leaf_value=-0.020003369456214462 -0.014090437091029188 0.0031287720028257368 -0.0047802186256287599 -0.017565064116556405 0.0039389473143959883 0.028116313429571962 0.015194772957559159 0.0079628974962044543 -0.0080997525525131429
leaf_weight=977 170 2601 1431 558 805 29 1359 1022 225
leaf_count=977 170 2601 1431 558 805 29 1359 1022 225
internal_value=0 0.00403083 -0.0111195 -0.00252778 0.0068714 -0.0146405 0.0111887 0.00221348 0.00475042
internal_weight=0 6769 2408 2004 4765 587 2164 1417 1247
internal_count=9177 6769 2408 2004 4765 587 2164 1417 1247
cat_boundaries=0 1 2
cat_threshold=4 2
is_linear=0
shrinkage=0.1


Tree=18
num_leaves=10
num_cat=2
split_feature=26 26 11 14 15 12 18 9 14
split_gain=88.8881 13.762 19.5276 10.7325 9.7522 9.49339 6.78049 6.05121 5.53727
threshold=0 1 381250.00000000006 512850.00000000006 615950.00000000012 269150.00000000006 84.500000000000014 20.500000000000004 976600.00000000012
decision_type=9 9 2 2 2 2 2 2 2
left_child=3 8 -3 -1 -4 -6 -5 -7 -2
right_child=1 2 4 6 5 7 -8 -9 -10
leaf_value=-0.026275830854438121 -0.012427375366980971 0.010136681647017497 -0.029184591974217092 0.018943132991682252 -0.011686906582556191 0.017640313088093003 0.039751915483601852 -0.0018622256686629643 0.0057386899821201785
leaf_weight=40 2190 1083 164 1446 1100 168 227 2608 151
leaf_count=40 2190 1083 164 1446 1100 168 227 2608 151
internal_value=0 -0.00467038 -0.00166706 0.0205249 -0.0049324 -0.00380513 0.0220009 -0.000540778 -0.0110411
internal_weight=0 7464 5123 1713 4040 3876 1673 2776 2341
internal_count=9177 7464 5123 1713 4040 3876 1673 2776 2341
cat_boundaries=0 1 2
cat_threshold=292 3586
is_linear=0
shrinkage=0.1


Tree=19
num_leaves=10
num_cat=7
split_feature=2 27 35 27 27 2 35 2 27
split_gain=267.522 52.3279 19.724 20.4675 19.5276 18.1923 13.9834 12.4397 8.47684
threshold=0 1 4.2972622671762819 2 3 4 1.4978661367769956 5 6
decision_type=9 9 2 9 9 9 2 9 9
left_child=5 6 3 -3 -4 -1 -2 -5 -6
right_child=1 2 4 7 8 -7 -8 -9 -10
leaf_value=0.072542932348953884 -0.031388943078027788 0.01328272744134637 0.016405269908076517 0.010331494537437574 -0.026375154047448786 0.037173745540255966 -0.013085219290347333 -0.010645523588440359 0.00066530234729379007
leaf_weight=320 582 498 1122 293 119 622 2135 2552 934
leaf_count=320 582 498 1122 293 119 622 2135 2552 934
internal_value=0 -0.00575051 -7.66647e-05 -0.00496919 0.00726269 0.0502364 -0.0170874 -0.00831927 -0.0022414
internal_weight=0 8235 5518 3343 2175 942 2717 2845 1053
internal_count=9177 8235 5518 3343 2175 942 2717 2845 1053
cat_boundaries=0 8 11 14 17 25 32 34
cat_threshold=67109376 3221250320 21513240 1024 2105472 67633220 1610616961 5312 1220896 1950646592 8457731 1615069184 136380416 8 2153779716 43061256 4218992 0 1073741840 4194304 0 0 64 536875008 64 0 0 2215641088 0 16480 1073741824 32 327680 2097154
is_linear=0
shrinkage=0.1


Tree=20
num_leaves=10
num_cat=3
split_feature=26 1 26 36 19 11 19 11 16
split_gain=57.3774 19.6044 12.831 11.5549 8.79253 5.19233 5.52503 4.83613 5.9864
threshold=0 1 2 5057.0289750829897 4.5000000000000009 563300.00000000012 63.500000000000007 381250.00000000006 406950.00000000006
decision_type=9 9 9 2 2 2 2 2 2
left_child=4 -2 3 7 -1 -6 -7 -3 -9
right_child=1 2 -4 -5 5 6 -8 8 -10
leaf_value=-0.015035908891550827 0.036907085800124355 0.0090249273237858023 -0.0085384077654583699 -0.012757182631768175 0.015241578656648436 0 0.038293149515731109 -0.003472305534243306 0.0071726890130573888
leaf_weight=70 106 786 3588 614 1372 43 233 1624 783
leaf_count=70 106 786 3588 614 1372 43 233 1624 783
internal_value=0 -0.00356945 -0.00425163 -9.70088e-05 0.0166377 0.0183219 0.0322139 0.00221448 0
internal_weight=0 7501 7395 3807 1718 1648 276 3193 2407
internal_count=9219 7501 7395 3807 1718 1648 276 3193 2407
cat_boundaries=0 1 14 15
cat_threshold=292 268435456 0 0 20480 0 4194368 0 0 0 0 262148 0 134217728 90321
is_linear=0
shrinkage=0.1


Tree=21
num_leaves=10
num_cat=7
split_feature=2 27 35 27 2 27 2 35 27
split_gain=213.776 42.8713 22.6317 24.9997 18.0005 15.0716 12.9028 10.3773 8.40197
threshold=0 1 3.5972184255501678 2 3 4 5 0.89587973461402759 6
decision_type=9 9 2 9 9 9 9 2 9
left_child=4 6 3 -3 -1 -4 -2 -8 -5
right_child=1 2 5 8 -6 -7 7 -9 -10
leaf_value=0.06853488235468648 0.012004931428338764 -0.019765997855798152 0.014943413570877175 0.019658770757557207 0.033253151238803895 0.00013155200510483632 -0.03072846532246927 -0.013058432204963609 -0.0016048840918356116
leaf_weight=298 157 891 1218 206 618 1694 437 2497 1203
leaf_count=298 157 891 1218 206 618 1694 437 2497 1203
internal_value=0 -0.00488074 0.000586966 -0.00674329 0.0457708 0.00651324 -0.0141988 -0.0157701 0.00134447
internal_weight=0 8303 5212 2300 916 2912 3091 2934 1409
internal_count=9219 8303 5212 2300 916 2912 3091 2934 1409
cat_boundaries=0 9 12 15 22 25 34 36
cat_threshold=67109376 3221252368 21512216 2147484672 2097344 67633216 1610616961 1216 64 68329888 1950908738 8455683 35668480 41947144 542992 0 1073741840 4210688 0 0 524352 536875008 2187330052 2190544944 26736 0 0 0 0 16384 4 0 0 524288 541327360 2149646336
is_linear=0
shrinkage=0.1


Tree=22
num_leaves=10
num_cat=4
split_feature=27 27 27 13 36 24 30 27 36
split_gain=93.4824 21.3961 15.7921 11.4552 7.07169 6.52573 5.639 5.34874 5.25939
threshold=0 1 2 669250.00000000012 4309.0094764368523 28.500000000000004 1.5000000000000002 3 466.77395856972686
decision_type=9 9 9 2 2 2 2 9 2
left_child=2 -2 5 -3 8 -1 -6 -5 -4
right_child=1 3 4 7 6 -7 -8 -9 -10
leaf_value=0 -0.014412255072932735 -0.0044089276050273199 0 0.030288599035944826 -0.0070728563012203115 0.028193660204318433 0.02310083589829813 0.0045416714490397548 0.015317835799949673
leaf_weight=62 2268 3466 246 109 358 905 73 478 1254
leaf_count=62 2268 3466 246 109 358 905 73 478 1254
internal_value=0 -0.0066182 0.0150395 -0.00213558 0.00937287 0.0257421 -0.00105292 0.0105837 0.0126923
internal_weight=0 6321 2898 4053 1931 967 431 587 1500
internal_count=9219 6321 2898 4053 1931 967 431 587 1500
cat_boundaries=0 3 6 8 11
cat_threshold=2019821572 2184249362 2148 1212704 608207168 8455171 541065216 2147549186 512 268435460 8200
is_linear=0
shrinkage=0.1


Tree=23
num_leaves=10
num_cat=3
split_feature=26 35 26 13 13 26 35 11 30
split_gain=32.3585 34.751 9.72761 7.52333 6.1859 5.81242 8.29302 4.45146 4.42204
threshold=0 2.9174053685313028 1 549750.00000000012 637950.00000000012 2 5.2704288588135384 371450.00000000006 1.5000000000000002
decision_type=9 2 9 2 2 9 2 2 2
left_child=3 2 -2 -1 -4 7 8 -3 -7
right_child=1 5 4 -5 -6 6 -8 -9 -10
leaf_value=-0.0050863548236870573 -0.026623425261500279 -0.010434710297752085 -0.012661608427771668 0.014942351697894596 -0.00012771343084111382 -0.00051336293014583292 0.014350275062836849 0.00046028019354115443 0.010150445141337693
leaf_weight=182 418 465 1466 1536 626 1656 731 1652 487
leaf_count=182 418 465 1466 1536 626 1656 731 1652 487
internal_value=0 -0.0026544 -0.0122791 0.0125196 -0.00905505 0.00210208 0.00505661 -0.00173952 0.00172717
internal_weight=0 7501 2510 1718 2092 4991 2874 2117 2143
internal_count=9219 7501 2510 1718 2092 4991 2874 2117 2143
cat_boundaries=0 1 2 3
cat_threshold=292 77832 3594
is_linear=0
shrinkage=0.1


Tree=24
num_leaves=10
num_cat=0
split_feature=35 36 35 11 11 35 9 29 35
split_gain=13.521 5.77636 9.49378 6.2877 4.76 4.7661 4.73043 5.99532 3.87205
threshold=2.249904835165133 1077.6409687827215 4.886575525404063 466450.00000000006 405400.00000000006 3.795426061844291 38.500000000000007 1.5000000000000002 4.7405652883788738
decision_type=2 2 2 2 2 2 2 2 2
left_child=6 -2 4 -4 5 -3 7 -1 -7
right_child=1 2 3 -5 -6 8 -8 -9 -10
leaf_value=-0.0075270477331746358 -0.001062664749284606 0.0053520357175798235 0.0085950583359942125 0.029322440439833938 0.0033924014468442762 -0.025538612134702123 -0.0076289052059002778 0.017591498202762169 0
leaf_weight=176 2544 120 912 208 2508 169 2310 181 77
leaf_count=176 2544 120 912 208 2508 169 2310 181 77
internal_value=0 0.00253634 0.00492685 0.0127944 0.00172451 -0.00863397 -0.00591055 0.0041106 -0.0170492
internal_weight=0 6538 3994 1120 2874 366 2667 357 246
internal_count=9205 6538 3994 1120 2874 366 2667 357 246
is_linear=0
shrinkage=0.1


Tree=25
num_leaves=10
num_cat=7
split_feature=2 27 2 2 27 13 27 34 2
split_gain=169.586 26.5987 17.0425 12.3608 8.95454 7.21103 7.30933 7.00754 6.83855
threshold=0 1 2 3 4 668450.00000000012 5 1.5000000000000002 6
decision_type=9 9 9 9 9 2 9 2 9
left_child=2 3 -1 -2 -3 7 -7 8 -6
right_child=1 4 -4 -5 5 6 -8 -9 -10
leaf_value=0.065253793536178425 0.010544607694893144 0.027965441606901127 0.029916041039532382 -0.012449482464711815 0.013273874835612457 -0.0024594001554458685 0.017007471820418299 0.022789842291312371 -0.0038021732652606501
leaf_weight=272 228 106 583 3320 233 286 439 109 3629
leaf_count=272 228 106 583 3320 233 286 439 109 3629
internal_value=0 -0.00427577 0.0422357 -0.0108362 0.000502505 -9.2267e-05 0.00898835 -0.00184906 -0.00264595
internal_weight=0 8350 855 3548 4802 4696 725 3971 3862
internal_count=9205 8350 855 3548 4802 4696 725 3971 3862
cat_boundaries=0 9 12 19 28 30 33 41
cat_threshold=67109376 1073768720 21577752 2147484672 2097280 67633216 536875137 5184 64 72851872 1955365186 11635715 0 1073741840 4276224 0 0 64 536875008 0 2147483648 2149580800 0 134234112 4 0 0 524288 671088640 2147549200 1358970880 4608 4194384 536870912 1114116 336592896 0 8256 0 0 16777344
is_linear=0
shrinkage=0.1


Tree=26
num_leaves=10
num_cat=3
split_feature=26 35 26 16 26 16 35 35 36
split_gain=20.259 23.8733 6.93411 5.42139 6.84773 5.28656 4.9721 4.89281 6.28105
threshold=0 3.6242520361853052 1 372850.00000000006 2 392400.00000000006 5.8985256106096164 3.7726948748059121 3005.0780525064224
decision_type=9 2 9 2 9 2 2 2 2
left_child=5 2 -2 4 -3 7 -6 8 -1
right_child=1 3 -4 -5 6 -7 -8 -9 -10
leaf_value=0.020777209743245671 -0.0038227270968669001 -0.010293045158364926 -0.013458658253450309 0.0057699501196851206 5.2382104896442634e-05 0.015562694056069025 0.02117825156676478 -0.0061253252212672693 0
leaf_weight=259 1778 576 1549 2533 935 874 133 287 281
leaf_count=259 1778 576 1549 2533 935 874 133 287 281
internal_value=0 -0.00212616 -0.0084788 0.00283484 -0.00144909 0.00992855 0.0030219 0.00362041 0.00952573
internal_weight=0 7504 3327 4177 1644 1701 1068 827 540
internal_count=9205 7504 3327 4177 1644 1701 1068 827 540
cat_boundaries=0 1 2 3
cat_threshold=292 19664 3714
is_linear=0
shrinkage=0.1


Tree=27
num_leaves=10
num_cat=1
split_feature=1 12 23 5 16 28 14 15 24
split_gain=14.6442 9.88907 5.5489 7.92328 4.66673 4.2981 4.16972 4.03502 5.39131
threshold=0 250250.00000000003 18.500000000000004 10.155749458694201 361750.00000000006 1.5000000000000002 673600.00000000012 629150.00000000012 103.50000000000001
decision_type=9 2 2 2 2 2 2 2 2
left_child=-1 -2 3 4 -3 -5 -7 8 -8
right_child=1 2 -4 5 -6 6 7 -9 -10
leaf_value=0.034942641171251627 -0.014521602806350557 -0.013511638346568215 -0.0017343153264919359 -0.0048744112614703241 0.00049206244169974702 0.00074310303531793104 -0.00056537633550438678 0.0094409878942170698 0.035493381480283241
leaf_weight=109 469 281 5016 210 1278 522 29 1142 149
leaf_count=109 469 281 5016 210 1278 522 29 1142 149
internal_value=0 -0.000357986 0.000366178 0.00339246 -0.0017807 0.00751371 0.00913877 0.012162 0.0274175
internal_weight=0 9096 8627 3611 1559 2052 1842 1320 178
internal_count=9205 9096 8627 3611 1559 2052 1842 1320 178
cat_boundaries=0 13
cat_threshold=272629760 0 0 20480 0 0 0 1 0 0 262148 0 134217728
is_linear=0
shrinkage=0.1


Tree=28
num_leaves=10
num_cat=1
split_feature=35 16 35 28 25 35 19 23 11
split_gain=8.4221 5.7586 4.52291 7.01346 4.43198 7.2601 3.76076 3.62447 3.46517
threshold=2.249904835165133 381050.00000000006 5.8985256106096164 18.500000000000004 0 4.5798392285869785 32.500000000000007 7.5000000000000009 523650.00000000006
decision_type=2 2 2 2 1 2 2 2 2
left_child=8 2 -2 -4 6 -6 7 -3 -1
right_child=1 4 3 -5 5 -7 -8 -9 -10
leaf_value=-0.0079675893661997205 -0.0026225430319783052 0.0098635099358933987 -0.0171135014266981 0.023715145357103354 -0.0034198336894893282 0.0094633693616905205 0.010474465192237017 -0.0079459055889324719 -0.00039765487323886506
leaf_weight=1415 2494 209 46 159 1220 670 1478 252 1258
leaf_count=1415 2494 209 46 159 1220 670 1478 252 1258
internal_value=0 0.0021078 -0.00131794 0.012642 0.00462488 0.000939915 0.00801464 0 -0.00455153
internal_weight=0 6528 2699 205 3829 1890 1939 461 2673
internal_count=9201 6528 2699 205 3829 1890 1939 461 2673
cat_boundaries=0 1
cat_threshold=2
is_linear=0
shrinkage=0.1


Tree=29
num_leaves=10
num_cat=3
split_feature=26 35 1 6 26 35 21 11 36
split_gain=19.2712 17.8765 7.91157 6.94556 6.07461 5.18439 5.04838 5.39586 4.95165
threshold=0 3.5972184255501678 1 163.50000000000003 2 4.8940944640863338 9.5000000000000018 419950.00000000006 4804.3101682329825
decision_type=9 2 9 2 9 2 2 2 2
left_child=3 4 -3 5 -2 -1 -4 -8 -5
right_child=1 2 6 8 -6 -7 7 -9 -10
leaf_value=0.0071054701247203773 -0.016806246592562923 0.02818281801085757 0.0046569631349921555 0.02328241843626648 -0.0053695455933138797 -0.010786988233024312 -0.0086240557930179398 0.0018921015424514756 0.0015774784196119721
leaf_weight=1098 647 104 2097 466 2500 175 817 1109 188
leaf_count=1098 647 104 2097 466 2500 175 817 1109 188
internal_value=0 -0.00220983 0.00204093 0.00900989 -0.00791585 0.00433795 0.00119468 -0.00236536 0.0176423
internal_weight=0 7274 4127 1927 3147 1273 4023 1926 654
internal_count=9201 7274 4127 1927 3147 1273 4023 1926 654
cat_boundaries=0 1 14 15
cat_threshold=356 268435456 0 0 20480 0 64 0 1 0 0 262148 0 134217728 77832
is_linear=0
shrinkage=0.1


Tree=30
num_leaves=10
num_cat=6
split_feature=2 27 2 2 27 27 13 36 16
split_gain=114.612 23.7435 10.6401 9.72857 8.82365 7.25218 5.78724 5.72807 5.18111
threshold=0 1 2 3 4 5 741400.00000000012 2243.0211695814473 457450.00000000006
decision_type=9 9 9 9 9 9 2 2 2
left_child=2 3 -1 -2 -5 -3 -7 -8 -9
right_child=1 5 -4 4 -6 6 7 8 -10
leaf_value=0.052854092984313088 0.0097566805900257576 0.013320463892044757 0.024368827878880492 -0.018879209825499579 -0.0071555143263382567 -0.00049058048681995285 0.055348654893138775 -0.023378302002245391 0.023673118365005845
leaf_weight=289 236 468 550 939 2884 3703 37 33 62
leaf_count=289 236 468 550 939 2884 3703 37 33 62
internal_value=0 -0.00340868 0.0351495 -0.00890251 -0.0101791 0.0016914 0.000139381 0.0207901 0.00320415
internal_weight=0 8362 839 4059 3823 4303 3835 132 95
internal_count=9201 8362 839 4059 3823 4303 3835 132 95
cat_boundaries=0 8 11 18 27 30 33
cat_threshold=67109376 1073768720 88621064 2147483648 2105472 67633216 1610616961 5184 336847264 1959297378 11109891 0 1073743888 4194304 0 0 524352 536875008 0 2147483648 2147483648 0 134234112 4 4194304 0 524352 163968 1883275586 65538 675284992 2181103632 64
is_linear=0
shrinkage=0.1


Tree=31
num_leaves=10
num_cat=3
split_feature=27 27 27 28 36 7 16 18 36
split_gain=42.4854 8.99579 6.63135 4.61499 4.48095 4.322 3.80191 3.01334 3.40919
threshold=0 1 2 1.0000000180025095e-35 8717.3465024485067 101.50000000000001 359850.00000000006 121.50000000000001 551.75821788855126
decision_type=9 9 9 2 2 2 2 2 2
left_child=2 -2 4 5 6 -4 -1 8 -5
right_child=1 -3 3 7 -6 -7 -8 -9 -10
leaf_value=0.0025060227258275137 -0.0094675731120143335 -0.0014307963257854141 -0.026372349932183278 0 0 0.0028240752018613481 0.023018758937805743 -0.0068783829098890545 0.010369379796267848
leaf_weight=156 2475 3518 80 333 140 86 667 108 1638
leaf_count=156 2475 3518 80 333 140 86 667 108 1638
internal_value=0 -0.00482536 0.00941374 0.00608863 0.0166204 -0.00888636 0.0196067 0.0075021 0.00848889
internal_weight=0 5993 3208 2245 963 166 823 2079 1971
internal_count=9201 5993 3208 2245 963 166 823 2079 1971
cat_boundaries=0 3 6 8
cat_threshold=4167309312 2184253462 2144 1221024 1950384448 2163715 541065216 2147549186
is_linear=0
shrinkage=0.1


Tree=32
num_leaves=10
num_cat=4
split_feature=2 2 35 2 2 4 35 10 4
split_gain=94.4826 14.0705 12.1905 6.30738 4.12226 3.96455 5.22336 5.15117 3.56722
threshold=0 1 2.740319461670996 2 3 59.809140379736107 4.7317931335534196 16.500000000000004 61.76900019141565
decision_type=9 9 2 9 9 2 2 2 2
left_child=3 -2 4 -1 -3 -4 7 -7 -6
right_child=1 2 5 -5 8 6 -8 -9 -10
leaf_value=0.046502291378964999 0.013088058320065982 0.0065693952301533109 -0.0049846328440612065 0.022505632852311837 -0.0076028343832681951 -0.012235453852087904 0.0052565854386410482 0 -0.016446340563972688
leaf_weight=313 485 120 1816 463 1863 431 1487 1432 800
leaf_count=313 485 120 1816 463 1863 431 1487 1432 800
internal_value=0 -0.0030966 -0.00414854 0.0331519 -0.0095103 -0.00119225 0.000746592 -0.00264285 -0.0103678
internal_weight=0 8434 7949 776 2783 5166 3350 1863 2663
internal_count=9210 8434 7949 776 2783 5166 3350 1863 2663
cat_boundaries=0 8 17 24 33
cat_threshold=67109376 1073766416 22626312 2147484672 136315008 67633152 1610616961 16778304 0 2148598016 335545360 0 8256 262276 4194336 4224 524352 0 1073741840 4276232 0 0 524288 536875008 0 4194304 0 0 0 1024 0 0 65536
is_linear=0
shrinkage=0.1


Tree=33
num_leaves=10
num_cat=3
split_feature=27 27 30 27 16 13 19 9 9
split_gain=31.4598 10.0399 5.33623 6.52717 4.80043 4.77952 4.02721 8.09112 4.23367
threshold=0 1 1.5000000000000002 2 361750.00000000006 748950.00000000012 73.500000000000014 112.50000000000001 39.500000000000007
decision_type=9 9 2 9 2 2 2 2 2
left_child=2 -2 3 4 -1 6 7 8 -5
right_child=1 -3 -4 5 -6 -7 -8 -9 -10
leaf_value=0 -0.01277934484740524 -0.0021694255474716938 0.017120679997780813 0.010426585535231396 0.01624499640702496 0.027214853770602843 -0.0048865838996868952 0.022484933130295426 -0.0063834444499038124
leaf_weight=204 1129 4894 578 235 760 71 721 206 412
leaf_count=204 1129 4894 578 235 760 71 721 206 412
internal_value=0 -0.00424108 0.0080288 0.00589514 0.0124509 0.00172894 0.000341286 0.00521952 0
internal_weight=0 6023 3187 2609 964 1645 1574 853 647
internal_count=9210 6023 3187 2609 964 1645 1574 853 647
cat_boundaries=0 3 6 8
cat_threshold=4167305216 2184249398 10336 1286432 541098304 8454155 675545088 2147549186
is_linear=0
shrinkage=0.1


Tree=34
num_leaves=10
num_cat=3
split_feature=2 35 2 16 2 36 12 35 19
split_gain=73.4126 10.0512 8.26783 6.13571 4.89481 4.30396 3.87601 3.6483 4.96497
threshold=0 4.1971736807086968 1 472900.00000000006 2 1706.8880778233831 309850.00000000006 0.89587973461402759 150.50000000000003
decision_type=9 2 9 2 9 2 2 2 2
left_child=4 2 -2 7 -1 -3 -7 -4 -9
right_child=1 5 3 -5 -6 6 -8 8 -10
leaf_value=0.040911911838564345 0.0081414351549067426 -0.00056251404374104319 -0.013422590033118915 0.0099960432566041577 0.019630842667437032 0.011754797786396858 -0.001862794232813828 -0.0084873411097096604 -0.0002025730259844719
leaf_weight=313 376 2454 940 190 477 630 245 2410 1175
leaf_count=313 376 2454 940 190 477 630 245 2410 1175
internal_value=0 -0.00273914 -0.00555252 -0.00673066 0.0289584 0.00143739 0.00749406 -0.00753447 -0.00588127
internal_weight=0 8420 5091 4715 790 3329 875 4525 3585
internal_count=9210 8420 5091 4715 790 3329 875 4525 3585
cat_boundaries=0 9 16 23
cat_threshold=67109376 1073766416 22626312 2147484672 136315008 67633152 1610616961 5184 64 0 2151678208 2483027968 0 0 1074004992 32 0 1073741840 4276232 0 0 524288 536875008
is_linear=0
shrinkage=0.1


Tree=35
num_leaves=10
num_cat=5
split_feature=27 27 13 27 7 20 27 27 13
split_gain=23.5305 7.55674 4.63351 7.92324 4.58874 5.01808 4.4391 3.81885 5.45238
threshold=0 1 574550.00000000012 2 137.50000000000003 127.00000000000001 3 4 741400.00000000012
decision_type=9 9 2 9 2 2 9 9 2
left_child=6 -2 3 -3 -5 -6 -1 -4 -9
right_child=1 2 7 4 5 -7 -8 8 -10
leaf_value=-0.01190112507431864 0.010394315639723626 -0.015619139680758336 0 -0.0047440829918848938 0.036494007934320782 0.0031052955592342354 -0.0037234491279200957 0.0058760370589685555 0.037707419961405614
leaf_weight=1004 1473 360 1403 354 67 246 2789 1452 62
leaf_count=1004 1473 360 1403 354 67 246 2789 1452 62
internal_value=0 0.00424149 0.00182395 -0.00375613 0.00225958 0.0115047 -0.00601671 0.00392914 0.00738967
internal_weight=0 5417 3944 1027 667 313 3793 2917 1514
internal_count=9210 5417 3944 1027 667 313 3793 2917 1514
cat_boundaries=0 3 5 8 11 14
cat_threshold=85189024 1959297344 12125451 945817600 2181103634 2147483648 136315396 25120 1220896 541098048 8454155 33817092 397320 4194900
is_linear=0
shrinkage=0.1


Tree=36
num_leaves=10
num_cat=2
split_feature=2 2 35 16 22 10 10 35 36
split_gain=55.9876 9.40271 7.65878 4.27208 3.63601 4.06865 3.53173 3.12061 4.40842
threshold=0 1 2.740319461670996 442650.00000000006 41.500000000000007 121.50000000000001 58.500000000000007 5.1387309967764621 1090.0232734106196
decision_type=9 9 2 2 2 2 2 2 2
left_child=4 -2 -3 7 5 -1 -5 -4 -9
right_child=1 2 3 6 -6 -7 -8 8 -10
leaf_value=0.030216980928361416 0.0099678417546481893 -0.0073616220396985265 -0.0034645365043772473 0.015881547358978482 0 0 -0.0014008022724424241 -0.0032017703428885605 0.0074097019269979596
leaf_weight=662 571 2765 3204 268 60 32 144 742 767
leaf_count=662 571 2765 3204 268 60 32 144 742 767
internal_value=0 -0.00216052 -0.00309937 -0.000729413 0.0261014 0.0285016 0.0088901 -0.00165348 0.0019322
internal_weight=0 8461 7890 5125 754 694 412 4713 1509
internal_count=9215 8461 7890 5125 754 694 412 4713 1509
cat_boundaries=0 9 18
cat_threshold=603980288 1074817040 21512200 0 136315072 67633216 1610616993 64 64 0 2147483904 2484077584 1024 1056768 262276 4194304 16782464 589824
is_linear=0
shrinkage=0.1


Tree=37
num_leaves=10
num_cat=3
split_feature=2 2 35 2 10 4 7 9 6
split_gain=46.3686 7.51086 5.91481 3.68435 3.47037 4.41142 3.75987 4.53055 4.13095
threshold=0 1 2.249904835165133 2 21.500000000000004 58.770351028130506 23.500000000000004 38.500000000000007 35.500000000000007
decision_type=9 9 2 9 2 2 2 2 2
left_child=3 -2 4 -1 5 -3 -7 8 -8
right_child=1 2 -4 -5 -6 6 7 -9 -10
leaf_value=0.034443690991778152 0.0085829900228027063 -0.023481627721193457 -0.0010110798180288977 0.015528251976966424 -0.011878967785235985 -0.02075816988099417 0.032421959404010228 -0.0027311269814565345 0
leaf_weight=292 598 103 5588 467 970 92 76 901 128
leaf_count=292 598 103 5588 467 970 92 76 901 128
internal_value=0 -0.00197513 -0.0028383 0.0236683 -0.00717621 -0.00336578 -0.00130741 0 0.0137527
internal_weight=0 8456 7858 759 2270 1300 1197 1105 204
internal_count=9215 8456 7858 759 2270 1300 1197 1105 204
cat_boundaries=0 9 18 25
cat_threshold=603980288 1074817040 22560792 0 136323200 67633216 1610616961 16777280 64 0 2147549440 2485125120 1024 1048640 262148 4194336 8393856 589824 0 1073743888 4210696 0 0 64 536875008
is_linear=0
shrinkage=0.1


Tree=38
num_leaves=10
num_cat=5
split_feature=27 12 27 35 27 35 14 27 27
split_gain=14.1546 5.97457 5.09268 9.28376 4.95805 4.5704 3.39426 5.05106 3.16639
threshold=0 250250.00000000003 1 3.5408542930527882 2 0.89587973461402759 835000.00000000012 3 4
decision_type=9 2 9 2 9 2 2 9 9
left_child=5 -2 3 4 -3 -1 7 -7 -4
right_child=1 2 8 -5 -6 6 -8 -9 -10
leaf_value=-0.015868467711906944 -0.0095329983668012187 0 0.024722197553613909 0.0052814036893148626 -0.013304303194561268 -0.016423199592149031 0.0019446070348049663 -0.0030798663703430996 0.0058412645982575916
leaf_weight=385 344 581 100 1733 527 374 688 1665 2818
leaf_count=385 344 581 100 1733 527 374 688 1665 2818
internal_value=0 0.00294681 0.00376543 0.000583221 -0.00640619 -0.0053263 -0.00371377 -0.0058152 0.0067044
internal_weight=0 6103 5759 2841 1108 3112 2727 2039 2918
internal_count=9215 6103 5759 2841 1108 3112 2727 2039 2918
cat_boundaries=0 3 6 9 12 14
cat_threshold=68387232 1959428416 12166403 2197840388 136581160 4213268 2164260864 136577064 4 0 809533504 73730 536870912 2147549184
is_linear=0
shrinkage=0.1


Tree=39
num_leaves=10
num_cat=7
split_feature=2 1 2 16 25 2 10 2 25
split_gain=36.5999 10.2587 6.23928 3.21916 3.06145 2.91 3.07671 2.55775 2.25067
threshold=0 1 2 472350.00000000006 3 4 80.500000000000014 5 6
decision_type=9 9 9 2 1 9 2 9 1
left_child=5 -2 -3 7 -5 6 -1 -4 -9
right_child=1 2 3 4 -6 -7 -8 8 -10
leaf_value=0.035900815265763455 0.027647070846832641 0.0073788574047303187 0.0039583613579734145 -0.0012309023303773141 0.018503760177792875 0.013610217152279329 0 -0.00086043208119114317 -0.0050449003508074913
leaf_weight=251 105 595 386 115 132 475 41 2048 5067
leaf_count=251 105 595 386 115 132 475 41 2048 5067
internal_value=0 -0.00177686 -0.00222675 -0.00302348 0.00772931 0.0208989 0.0306144 -0.00343383 -0.00389004
internal_weight=0 8448 8343 7748 247 767 292 7501 7115
internal_count=9215 8448 8343 7748 247 767 292 7501 7115
cat_boundaries=0 9 22 31 32 39 47 48
cat_threshold=603980288 1074817040 22560792 0 136315008 67895360 1610616961 64 524352 268435456 0 0 20480 0 4194304 8 1 0 0 4 0 134217728 0 2147483648 2216689664 1024 24672 132 4194336 16782464 65536 2 0 1073743888 4210696 0 0 64 536875008 0 4260101 268436480 0 1048576 1073741824 0 8388608 1
is_linear=0
shrinkage=0.1


Tree=40
num_leaves=10
num_cat=4
split_feature=27 12 27 11 15 27 15 14 27
split_gain=13.3362 5.17339 4.31855 3.67452 3.29625 3.14915 3.7777 3.25752 2.97783
threshold=0 272150.00000000006 1 347150.00000000006 700650.00000000012 2 634000.00000000012 717100.00000000012 3
decision_type=9 2 9 2 2 9 2 2 9
left_child=1 2 3 -1 -4 6 -2 -7 -3
right_child=5 8 4 -5 -6 7 -8 -9 -10
leaf_value=0.0066122903634887389 0.00046197902352633128 0.0023300901775974913 0.013603608774332726 -0.0066914489051357112 0 -0.0081106666575239527 -0.011845276823328463 -0.00024570084471751979 0.0094572799374915348
leaf_weight=234 266 1249 314 1005 518 713 873 2462 1571
leaf_count=234 266 1249 314 1005 518 713 873 2462 1571
internal_value=0 0.00368612 0 -0.00383168 0.00543234 -0.00393103 -0.00855197 -0.00212863 0.00648135
internal_weight=0 4891 2071 1239 832 4314 1139 3175 2820
internal_count=9205 4891 2071 1239 832 4314 1139 3175 2820
cat_boundaries=0 3 6 9 12
cat_threshold=4167309828 2184385086 4196976 2416181760 2097708 2608 1212704 809533760 10584067 1075843588 33689640 4196416
is_linear=0
shrinkage=0.1


Tree=41
num_leaves=10
num_cat=2
split_feature=27 30 4 9 36 27 12 22 14
split_gain=10.9737 5.28422 5.03975 5.20405 5.93925 4.71757 4.59846 4.33446 3.44906
threshold=0 1.5000000000000002 61.323312273874208 14.500000000000002 1102.7140533370168 1 272150.00000000006 4.5000000000000009 636350.00000000012
decision_type=9 2 2 2 2 9 2 2 2
left_child=1 2 3 4 -1 7 -4 -5 -3
right_child=-2 8 6 5 -6 -7 -8 -9 -10
leaf_value=0 -0.0035713258600912757 -0.0064970973470336729 -0.0099421302920286673 -0.015643074258964426 0.048196883129138696 0.0067679107820936245 0.0031961640503825879 0.00068121215635470267 0.012265588202824024
leaf_weight=66 4297 82 608 183 57 1451 414 1195 852
leaf_count=66 4297 82 608 183 57 1451 414 1195 852
internal_value=0 0.00333958 0.00163727 0.00380357 0.0243655 0.00277103 -0.00423657 -0.0011937 0.0101988
internal_weight=0 4908 3974 2952 123 2829 1022 1378 934
internal_count=9205 4908 3974 2952 123 2829 1022 1378 934
cat_boundaries=0 3 6
cat_threshold=4167309844 2318471742 4196976 3493855744 2283798568 4196432
is_linear=0
shrinkage=0.1


Tree=42
num_leaves=10
num_cat=5
split_feature=27 35 27 35 16 27 27 27 13
split_gain=9.05307 4.13776 3.91998 3.90899 4.66634 5.01417 3.95849 3.11052 2.95113
threshold=0 0.89587973461402759 1 5.7853612818482238 396950.00000000006 2 3 4 593450.00000000012
decision_type=9 2 9 2 2 9 9 9 2
left_child=1 -1 -2 4 7 8 -5 -4 -6
right_child=2 -3 3 6 5 -7 -8 -9 -10
leaf_value=-0.013040507359189693 0.02138207283023049 -0.0022958017897496239 -0.0095865825697318413 -4.2004680095864905e-05 -4.7052538115843873e-05 0 0.020843880157950183 7.6259095015686091e-05 0.012121979844454107
leaf_weight=431 106 3402 363 104 174 1045 208 2452 920
leaf_count=431 106 3402 363 104 174 1045 208 2452 920
internal_value=0 -0.00359684 0.00275514 0.00226609 0.0014971 0.00505129 0.0132928 -0.00106438 0.00973931
internal_weight=0 3833 5372 5266 4954 2139 312 2815 1094
internal_count=9205 3833 5372 5266 4954 2139 312 2815 1094
cat_boundaries=0 3 5 8 11 14
cat_threshold=85189024 1959559488 12158211 536870912 2147549184 272629760 136315430 26664 0 514 32 33554432 136445984 24600
is_linear=0
shrinkage=0.1


Tree=43
num_leaves=10
num_cat=5
split_feature=2 1 2 26 28 2 34 16 21
split_gain=34.3102 8.40939 5.63297 7.5892 4.56248 4.23462 3.62339 3.3738 3.23914
threshold=0 1 2 3 6.5000000000000009 4 1.0000000180025095e-35 372850.00000000006 48.500000000000007
decision_type=9 9 9 9 2 9 2 2 2
left_child=-1 -2 4 7 -3 -5 8 -4 -7
right_child=1 2 3 5 -6 6 -8 -9 -10
leaf_value=0.021870653174234547 0.024776613341148612 0 -0.0043980879045540733 0.0024482203240710704 0.015899725409482941 -0.011550801932642603 0.0052765580620509987 0.00090126872988225033 0.0058505048247491486
leaf_weight=661 107 393 1730 300 296 1796 122 3717 83
leaf_count=661 107 393 1730 300 296 1796 122 3717 83
internal_value=0 -0.00160996 -0.00201994 -0.00282806 0.00641746 -0.00765097 -0.00936459 -0.000708603 -0.0105736
internal_weight=0 8544 8437 7748 689 2301 2001 5447 1879
internal_count=9205 8544 8437 7748 689 2301 2001 5447 1879
cat_boundaries=0 9 22 30 31 40
cat_threshold=603980288 1073766417 2169061384 2147483648 134217856 67633216 1610616961 20971520 524352 268435456 0 0 20480 0 0 8 1 0 0 262148 0 134217728 0 2152792064 269484048 1024 2105440 262276 65568 5312 25931 0 0 69206016 0 1064960 1024 0 8388608 65536
is_linear=0
shrinkage=0.1


Tree=44
num_leaves=10
num_cat=6
split_feature=2 1 21 2 26 2 26 35 28
split_gain=25.5692 7.50323 4.20095 4.34177 6.28029 4.59404 6.49141 4.19838 4.45248
threshold=0 1 31.500000000000004 2 3 4 5 5.2443855436100657 10.500000000000002
decision_type=9 9 2 9 9 9 9 2 2
left_child=-1 -2 3 -3 5 -5 -7 8 -4
right_child=1 2 7 4 -6 6 -8 -9 -10
leaf_value=0.018228808907422494 0.022912966197446479 0.0072424468383853226 -0.0051398957694229527 0.0024085191354089874 -0.00028684152540867493 -0.021981026485942568 -0.0049175307857702334 0.0065388408450296606 -0.022794530279198796
leaf_weight=689 110 533 510 300 5476 360 843 124 258
leaf_count=689 110 533 510 300 5476 360 843 124 258
internal_value=0 -0.00166166 -0.00205675 -0.00122764 -0.00193827 -0.00765437 -0.010486 -0.00862284 -0.0115811
internal_weight=0 8514 8404 7512 6979 1503 1203 892 768
internal_count=9203 8514 8404 7512 6979 1503 1203 892 768
cat_boundaries=0 9 22 30 31 40 41
cat_threshold=67109376 1073758225 21577736 1024 134217856 67633216 541069472 16778240 524352 268435456 0 0 16384 0 4194304 8 5 0 0 4 0 134219776 536870912 2151677952 2216690688 0 2105376 263172 1 4288 68260 0 256 0 0 1064960 1073741824 0 0 65536 36
is_linear=0
shrinkage=0.1


Tree=45
num_leaves=10
num_cat=2
split_feature=1 12 6 1 21 35 28 18 12
split_gain=7.09459 4.24023 2.83391 2.58635 3.41835 2.65515 4.02329 2.49195 3.27188
threshold=0 250250.00000000003 10.500000000000002 1 31.500000000000004 5.2704288588135384 10.500000000000002 6.5000000000000009 255100.00000000003
decision_type=9 2 2 9 2 2 2 2 2
left_child=-1 -2 -3 -4 7 6 -6 8 -5
right_child=1 2 3 4 5 -7 -8 -9 -10
leaf_value=0.024004298739390025 -0.0096964245389439402 0.010782946463584072 0.014661097848765027 0.017531037133797372 -0.0023766557363549328 0.0086241703709779294 -0.017984979132374672 0.00090672146301643832 -0.0065268448225535153
leaf_weight=110 471 239 103 53 560 84 289 6443 851
leaf_count=110 471 239 103 53 560 84 289 6443 851
internal_value=0 -0.000454442 4.45714e-06 -0.000256101 -0.000506092 -0.00622099 -0.00815133 0.000165626 -0.00468284
internal_weight=0 9093 8622 8383 8280 933 849 7347 904
internal_count=9203 9093 8622 8383 8280 933 849 7347 904
cat_boundaries=0 13 26
cat_threshold=0 0 0 20480 256 64 0 1 0 0 262148 0 134217728 2420113408 0 0 0 0 0 8 4 0 0 0 32768 2048
is_linear=0
shrinkage=0.1


Tree=46
num_leaves=10
num_cat=3
split_feature=27 12 27 27 15 5 5 14 16
split_gain=5.34723 3.89813 7.4288 4.8397 4.96122 4.44362 5.71387 3.44511 3.20063
threshold=0 286600.00000000006 1 2 715000.00000000012 5.3206782826921364 10.937277240138302 827050.00000000012 327900.00000000006
decision_type=9 2 9 9 2 2 2 2 2
left_child=1 3 -3 4 5 -1 -7 8 -5
right_child=-2 2 -4 7 -6 6 -8 -9 -10
leaf_value=-0.018783614893065063 -0.0023982562349876011 0.00013010196046548756 0.015089109391371869 0.0059882396886517739 8.9530173395954772e-05 0.023164091458857495 -0.00095832199866808295 0.012115835781181541 -0.00727182286115584
leaf_weight=29 4833 859 600 182 972 316 99 113 1200
leaf_count=29 4833 859 600 182 972 316 99 113 1200
internal_value=0 0.00242038 0.00665476 0.000171796 0.00447085 0.0132805 0.0164654 -0.00364352 -0.00524202
internal_weight=0 4370 1459 2911 1416 444 415 1495 1382
internal_count=9203 4370 1459 2911 1416 444 415 1495 1382
cat_boundaries=0 3 6 9
cat_threshold=4200864532 2184249374 2123896 1080033796 2181038090 2112 1113592576 2147549186 2099264
is_linear=0
shrinkage=0.1


Tree=47
num_leaves=10
num_cat=4
split_feature=1 27 36 17 23 36 27 12 26
split_gain=5.90106 5.01997 3.51561 3.25793 4.48999 3.19312 8.31442 4.38685 4.58143
threshold=0 1 111.58723089729384 62.500000000000007 29.500000000000004 3410.2366268472388 2 276250.00000000006 3
decision_type=9 9 2 2 2 2 9 2 9
left_child=-1 3 -3 -2 -5 -4 -7 -8 -9
right_child=1 2 5 4 -6 6 7 8 -10
leaf_value=0.022312853468514852 -0.0079000846638502143 -0.016597679533764675 0.0031168254346006915 0.0055958142053615907 -0.0047369114049465484 -0.012504734244461422 -0.004015967059912166 0.019331832740889648 0.0011154598523450058
leaf_weight=106 1182 105 4249 641 1165 516 532 224 483
leaf_count=106 1182 105 4249 641 1165 516 532 224 483
internal_value=0 -0.000374364 0.00122052 -0.00375901 -0.000852566 0.00159943 -0.00185102 0.00235159 0.0077305
internal_weight=0 9097 6109 2988 1806 6004 1755 1239 707
internal_count=9203 9097 6109 2988 1806 6004 1755 1239 707
cat_boundaries=0 13 16 19 20
cat_threshold=0 0 0 20480 256 4194368 0 1 0 0 4 0 134217728 68395168 1946845504 14222595 39862272 169869344 18484 16768
is_linear=0
shrinkage=0.1


Tree=48
num_leaves=10
num_cat=2
split_feature=1 12 9 24 36 1 24 28 12
split_gain=5.69091 3.49485 3.71166 4.76926 3.00425 2.24309 2.06281 1.93855 1.7976
threshold=0 250250.00000000003 34.500000000000007 24.500000000000004 722.62945915358171 1 252.50000000000003 33.500000000000007 262550.00000000006
decision_type=9 2 2 2 2 9 2 2 2
left_child=-1 -2 3 -3 -5 -4 7 -6 -7
right_child=1 2 5 4 6 8 -8 -9 -10
leaf_value=0.021867713478467006 -0.0085770006707840806 -0.0092318437600963262 0.013482792157225379 -0.00085482171570344613 0.015650278327387534 0.0023547185653916658 -0.000298715288731739 0 -0.0014700858382218529
leaf_weight=109 467 148 102 165 578 1483 58 46 6066
leaf_count=109 467 148 102 165 578 1483 58 46 6066
internal_value=0 -0.00012119 0.00029008 0.00606183 0.00919682 -0.000409315 0.0122032 0.0139932 -0.000665914
internal_weight=0 9113 8646 995 847 7651 682 624 7549
internal_count=9222 9113 8646 995 847 7651 682 624 7549
cat_boundaries=0 13 26
cat_threshold=4194304 0 0 20480 256 0 0 1 0 0 262144 32768 134217728 2147483648 0 0 0 0 4194304 8 4 0 0 4 0 2176
is_linear=0
shrinkage=0.1


Tree=49
num_leaves=10
num_cat=3
split_feature=2 1 2 23 12 4 30 12 8
split_gain=21.888 5.66786 3.64595 2.58858 6.78142 3.85521 3.08461 2.98191 2.805
threshold=0 1 2 17.500000000000004 286850.00000000006 60.006217884591301 7.5000000000000009 298450.00000000006 71.500000000000014
decision_type=9 9 9 2 2 2 2 2 2
left_child=-1 -2 -3 4 -4 6 8 -7 -6
right_child=1 2 3 -5 5 7 -8 -9 -10
leaf_value=0.018239044803336404 0.020569110956160121 0.0058581974135480004 -0.0027046491567189446 -0.0036095768186590865 0.0043497001235650243 0.0061883320689298778 -0.0028220938860692955 -0.013500790880299063 0.023251982547344629
leaf_weight=613 106 588 2354 4699 196 217 65 118 266
leaf_count=613 106 588 2354 4699 196 217 65 118 266
internal_value=0 -0.00116616 -0.001507 -0.00211031 0 0.00766119 0.013006 0 0.0160811
internal_weight=0 8609 8503 7915 3216 862 527 335 462
internal_count=9222 8609 8503 7915 3216 862 527 335 462
cat_boundaries=0 9 22 31
cat_threshold=67109376 1073768465 21577752 2147483648 134217856 786496 1610616961 4194304 64 4194304 0 0 20480 256 0 0 5 0 0 262144 0 134219776 536870912 2147549184 70254592 1024 2105440 67109892 32 16781376 524288
is_linear=0
shrinkage=0.1


Tree=50
num_leaves=10
num_cat=6
split_feature=2 27 2 2 27 17 27 36 22
split_gain=18.3033 6.27169 3.53408 4.07554 8.03399 4.81431 2.6309 2.59332 2.41353
threshold=0 1 2 3 4 172.50000000000003 5 722.62945915358171 41.500000000000007
decision_type=9 9 9 9 9 2 9 2 2
left_child=8 2 -2 -4 5 -5 7 -3 -1
right_child=1 6 3 4 -6 -7 -8 -9 -10
leaf_value=0.018590790066693969 0.0037524773049807053 -0.0040495068926231495 0.001834996107262435 -0.035429684438342289 -0.0059902879454104621 0 0 0.017810023052575025 0
leaf_weight=579 276 42 316 187 1258 56 6287 170 51
leaf_count=579 276 42 316 187 1258 56 6287 170 51
internal_value=0 -0.0010725 -0.0058327 -0.00751573 -0.00974274 -0.0266153 0.000406929 0.0111072 0.016452
internal_weight=0 8592 2093 1817 1501 243 6499 212 630
internal_count=9222 8592 2093 1817 1501 243 6499 212 630
cat_boundaries=0 9 12 20 26 29 32
cat_threshold=603980288 3221235729 21577752 2147483648 134226048 524352 1610616960 5242880 524352 1347584160 1885372738 10551299 0 4194304 69206016 0 2097152 67108868 0 64 0 256 0 0 16384 1073742848 1073741824 2 65536 671088640 2147549184 64
is_linear=0
shrinkage=0.1


Tree=51
num_leaves=10
num_cat=2
split_feature=1 6 1 21 7 23 35 5 5
split_gain=3.75292 2.56735 2.06272 2.57588 2.73235 2.44546 4.78048 2.27727 3.55358
threshold=0 10.500000000000002 1 31.500000000000004 68.500000000000014 65.500000000000014 5.3542222040740404 14.380193556010651 9.4114868296640868
decision_type=9 2 9 2 2 2 2 2 2
left_child=-1 -2 -3 4 7 -5 -7 8 -4
right_child=1 2 3 5 -6 6 -8 -9 -10
leaf_value=0.018060992147177855 0.0096369265753423524 0.012723255331366312 -0.0087403238532828987 -0.012816397577827588 0.0007510071075307387 -0.0036981458136792289 0.038031497025810136 -0.018731575967180652 0.0023740145841705876
leaf_weight=105 260 105 521 322 6607 603 28 111 560
leaf_count=105 260 105 521 322 6607 603 28 111 560
internal_value=0 -9.65266e-05 -0.00042661 -0.000642953 0 -0.00555285 -0.00122521 -0.00444929 -0.0026202
internal_weight=0 9117 8857 8752 7799 953 631 1192 1081
internal_count=9222 9117 8857 8752 7799 953 631 1192 1081
cat_boundaries=0 13 26
cat_threshold=4194304 0 0 0 256 0 0 1 0 0 262148 32768 134217728 2415919104 0 0 20480 0 64 8 4 0 0 0 0 2048
is_linear=0
shrinkage=0.1


Tree=52
num_leaves=10
num_cat=4
split_feature=2 35 36 2 4 1 4 2 35
split_gain=13.3813 3.84319 3.56647 3.01769 2.87483 2.52608 2.91351 3.34709 2.62764
threshold=0 2.740319461670996 357.03712883670414 1 60.384624819024602 2 63.265915027225851 3 5.040188859666439
decision_type=9 2 2 9 2 9 2 9 2
left_child=4 2 -2 -3 -1 -5 7 8 -7
right_child=1 3 -4 5 -6 6 -8 -9 -10
leaf_value=0.020505066614317124 -0.01857345104691174 0.0099171318434731429 -0.0027959018942133084 0.014884756487918172 0.0048965340238902042 -0.0053932112551106984 0.0050819168589368423 -0.00084904549335692117 -0.052773204289221901
leaf_weight=359 164 318 2825 102 296 76 817 4229 24
leaf_count=359 164 318 2825 102 296 76 817 4229 24
internal_value=0 -0.000880353 -0.0037927 0.000611629 0.0138385 0 -0.000293966 -0.00139974 -0.0188041
internal_weight=0 8555 2989 5566 655 5248 5146 4329 100
internal_count=9210 8555 2989 5566 655 5248 5146 4329 100
cat_boundaries=0 9 18 31 37
cat_threshold=67108864 1073768465 2151694344 2147484672 2097152 67633216 1614811168 4194304 65600 536870912 65536 3670016 0 134242432 262272 1 5312 524288 2147483648 0 0 16384 0 4194304 0 1 0 0 4 0 134219904 0 2097152 67109888 0 1024 1024
is_linear=0
shrinkage=0.1


Tree=53
num_leaves=10
num_cat=5
split_feature=2 27 2 12 2 27 18 9 35
split_gain=11.5066 6.01675 3.25021 2.95544 2.73856 6.85746 6.31161 5.21415 2.66099
threshold=0 1 2 250250.00000000003 3 4 64.500000000000014 65.500000000000014 4.1971736807086968
decision_type=9 9 9 2 9 9 2 2 2
left_child=-1 2 -2 -3 -4 6 7 -6 -5
right_child=1 3 4 8 5 -7 -8 -9 -10
leaf_value=0.011821133576703875 0.0036917999934817365 -0.0085876001984518426 0.002346954550499201 -0.0003201995791743868 -0.0057359914831914219 -0.0056642195290914528 0.00067033355606298673 -0.060500325107937451 0.0040333605682986206
leaf_weight=765 322 305 254 3253 47 1879 26 68 2291
leaf_count=765 322 305 254 3253 47 1879 26 68 2291
internal_value=0 -0.000903762 -0.00492288 0.000818551 -0.00632512 -0.00761478 -0.0289162 -0.0415266 0.00140819
internal_weight=0 8445 2596 5849 2274 2020 141 115 5544
internal_count=9210 8445 2596 5849 2274 2020 141 115 5544
cat_boundaries=0 9 12 21 29 31
cat_threshold=67109376 1073768465 2218803224 2147484672 136315072 67633216 1614811296 4194304 65600 1444389280 1885372482 12173575 0 256 1572864 0 0 1073741828 1 1048640 524288 131072 2147483648 0 0 16416 0 0 16777216 0 2
is_linear=0
shrinkage=0.1


Tree=54
num_leaves=10
num_cat=1
split_feature=1 36 23 8 30 24 7 15 20
split_gain=2.90599 1.55255 1.49177 3.9156 4.56227 3.57879 3.89161 4.0185 3.30318
threshold=0 79.211241227332224 7.5000000000000009 63.500000000000007 5.5000000000000009 198.50000000000003 56.500000000000007 855250.00000000012 121.00000000000001
decision_type=9 2 2 2 2 2 2 2 2
left_child=-1 -2 3 4 -3 6 -5 8 -8
right_child=1 2 -4 5 -6 -7 7 -9 -10
leaf_value=0.016131412368328189 -0.011718099285385124 -0.0027576821277819899 -0.0005138406526407367 -0.0012765037049079395 0.015573300571941385 -0.0015218193911377042 0.0040484250771429834 0.054610663943118989 0.032523530090122744
leaf_weight=102 113 1024 7325 67 156 127 181 39 76
leaf_count=102 113 1024 7325 67 156 127 181 39 76
internal_value=0 -4.6777e-05 5.62355e-05 0.00279135 -2.14811e-06 0.0103182 0.0155399 0.0206701 0.0139941
internal_weight=0 9108 8995 1670 1180 490 363 296 257
internal_count=9210 9108 8995 1670 1180 490 363 296 257
cat_boundaries=0 13
cat_threshold=2151677952 0 0 20480 256 0 8 1 0 0 0 0 134217728
is_linear=0
shrinkage=0.1


Tree=55
num_leaves=10
num_cat=3
split_feature=27 36 28 14 36 27 28 12 27
split_gain=3.0968 3.00095 2.68486 2.08908 4.36007 2.85008 2.74725 2.17206 2.89995
threshold=0 111.58723089729384 37.500000000000007 739050.00000000012 1138.6857979244535 1 8.5000000000000018 258250.00000000003 2
decision_type=9 2 2 2 2 9 2 2 9
left_child=2 -2 3 4 -1 -5 -7 -6 -9
right_child=1 -3 -4 5 7 6 -8 8 -10
leaf_value=0.00053861980906857478 -0.014935040515197168 0.0019269239121436688 -0.03335885968181402 0.0021694240315903775 0 -0.009990129192965453 0.001154277075091525 0 -0.020423304053054005
leaf_weight=481 103 5652 29 1613 133 483 305 117 294
leaf_count=481 103 5652 29 1613 133 483 305 117 294
internal_value=0 0.00155434 -0.0022229 -0.00185142 -0.00564151 -7.01976e-05 -0.00511447 -0.0118262 -0.0154261
internal_weight=0 5755 3455 3426 1025 2401 788 544 411
internal_count=9210 5755 3455 3426 1025 2401 788 544 411
cat_boundaries=0 3 6 9
cat_threshold=118727584 877166656 15844623 83886592 336101376 17420 16777216 0 1024
is_linear=0
shrinkage=0.1


Tree=56
num_leaves=10
num_cat=3
split_feature=1 27 21 5 27 14 14 14 18
split_gain=2.67946 2.87535 2.71706 3.45349 3.10301 3.34223 4.87076 2.64614 2.63182
threshold=0 1 10.500000000000002 5.3206782826921364 2 781700.00000000012 772650.00000000012 827050.00000000012 75.500000000000014
decision_type=9 9 2 2 9 2 2 2 2
left_child=-1 2 3 -2 7 6 -6 -5 -4
right_child=1 -3 8 4 5 -7 -8 -9 -10
leaf_value=0.015606613125057301 -0.010753245689488256 -0.0015273085574754965 -0.0037183970625251773 0.00065117019780483378 0.011465710215558582 0 0.049453255847464399 0.012061471305854651 0.0056036608995067797
leaf_weight=100 122 5582 1084 1204 241 167 54 270 402
leaf_count=100 122 5582 1084 1204 241 167 54 270 402
internal_value=0 -7.28282e-05 0.00210566 0.00450027 0.00566391 0.0130105 0.0197482 0.00298685 -0.000932851
internal_weight=0 9126 3544 2058 1936 462 295 1474 1486
internal_count=9226 9126 3544 2058 1936 462 295 1474 1486
cat_boundaries=0 13 16 19
cat_threshold=272629760 0 0 4096 256 64 0 1 0 0 4 0 134217728 1785008128 2284126730 1049200 1073807360 136315402 1049120
is_linear=0
shrinkage=0.1


Tree=57
num_leaves=10
num_cat=6
split_feature=2 24 2 27 2 27 27 8 24
split_gain=11.4975 5.01344 3.45795 5.73047 2.99978 2.41878 2.29609 3.14556 3.59894
threshold=0 209.50000000000003 1 2 3 4 5 279.50000000000006 207.50000000000003
decision_type=9 2 9 9 9 9 9 2 2
left_child=1 -1 -2 4 -4 -5 7 8 -6
right_child=2 -3 3 5 6 -7 -8 -9 -10
leaf_value=0.028331674308203908 0.0052813162881901396 0 0.0023739504028309436 0.01462225229959449 -0.012004081177809229 -3.0440654990897891e-05 -0.0053703020231637855 0 -0.045634635336183782
leaf_weight=207 882 101 285 104 192 6054 1280 60 61
leaf_count=207 882 101 285 104 192 6054 1280 60 61
internal_value=0 0.0187984 -0.000545305 -0.00123928 -0.00606656 0.00017681 -0.00782647 -0.0161803 -0.021662
internal_weight=0 308 8918 8036 1878 6158 1593 313 253
internal_count=9226 308 8918 8036 1878 6158 1593 313 253
cat_boundaries=0 7 16 19 27 29 32
cat_threshold=0 2064 4259848 0 0 67108928 1610616960 603980288 1077960961 2501394432 0 135274720 263296 4194304 5243904 524352 1414824064 1885372770 8980737 0 2147483648 0 0 16384 1074266112 0 64 671088640 2147549184 1073741824 2 65536
is_linear=0
shrinkage=0.1


Tree=58
num_leaves=10
num_cat=2
split_feature=2 2 24 24 4 9 21 16 36
split_gain=9.37614 2.45298 2.565 3.93258 2.28673 2.28282 2.73623 2.7021 2.28227
threshold=0 1 453.50000000000006 400.50000000000006 59.949704372129965 32.500000000000007 10.500000000000002 472350.00000000006 6105.419326811555
decision_type=9 9 2 2 2 2 2 2 2
left_child=-1 -2 3 5 -5 6 -3 -7 -4
right_child=1 2 8 4 -6 7 -8 -9 -10
leaf_value=0.014492166334334805 0.0044827497366516349 0.0015520078424565726 0.0048611880886395183 -0.023068783026559216 0 -0.0026571024127219891 0.032973811047113798 0.0085170535171182477 -0.014117828879253086
leaf_weight=422 822 887 961 138 60 5636 31 210 59
leaf_count=422 822 887 961 138 60 5636 31 210 59
internal_value=0 -0.000590938 -0.00116742 -0.0018915 -0.0159819 -0.0014211 0.00304008 -0.00218867 0.00337917
internal_weight=0 8804 7982 6962 198 6764 918 5846 1020
internal_count=9226 8804 7982 6962 198 6764 918 5846 1020
cat_boundaries=0 8 17
cat_threshold=67108864 10257 5832712 0 0 67108928 1610616960 4194304 536871424 1077952768 2434809856 1024 135274624 1074005124 4194304 17826816 589888
is_linear=0
shrinkage=0.1


Tree=59
num_leaves=10
num_cat=4
split_feature=2 24 27 2 27 19 11 15 6
split_gain=7.91083 3.70612 2.50531 2.16121 2.31496 2.57629 3.72106 3.24607 2.42089
threshold=0 209.50000000000003 1 2 3 336.50000000000006 501500.00000000006 634000.00000000012 25.500000000000004
decision_type=9 2 9 9 9 2 2 2 2
left_child=1 -1 3 -2 8 6 7 -6 -5
right_child=2 -3 -4 4 5 -7 -8 -9 -10
leaf_value=0.023899761798537797 0.0025277250186570067 0 0.00046707829268863554 0.0062847745223929595 0.002712369913505193 -0.017115486427062589 0.0060560209959514642 -0.0097040877254703298 -0.015531227118129648
leaf_weight=205 406 100 6757 32 270 118 432 566 340
leaf_count=205 406 100 6757 32 270 118 432 566 340
internal_value=0 0.0156849 -0.00043169 -0.00340753 -0.00500642 -0.00270188 -0.00107278 -0.00522528 -0.0122713
internal_weight=0 305 8921 2164 1758 1386 1268 836 372
internal_count=9226 305 8921 2164 1758 1386 1268 836 372
cat_boundaries=0 7 10 19 22
cat_threshold=0 10256 4259848 0 0 67108928 1073746048 274104608 1885340002 8503299 0 1073758464 2097152 0 2113536 1073741828 0 16777216 262144 32768 541065218 65537
is_linear=0
shrinkage=0.1


Tree=60
num_leaves=10
num_cat=3
split_feature=27 6 13 27 27 5 9 6 11
split_gain=3.02063 1.76366 1.63077 6.04984 4.93063 3.97301 3.74207 3.25107 2.8931
threshold=0 10.500000000000002 613350.00000000012 1 2 10.993217496352903 39.500000000000007 54.500000000000007 570350.00000000012
decision_type=9 2 2 9 9 2 2 2 2
left_child=-1 -2 4 8 5 -3 7 -6 -4
right_child=1 2 3 -5 6 -7 -8 -9 -10
leaf_value=0.016120938588777511 0.0078821586059620065 -0.0073637242172734504 0.0043965096247365843 -0.00075938965177677704 0.0052716229069314727 0.00118988840574533 -0.000259539330541519 0.034485917757497278 0.020332786792050139
leaf_weight=105 258 1813 487 2982 385 671 2264 53 202
leaf_count=105 258 1813 487 2982 385 671 2264 53 202
internal_value=0 -0.000186829 -0.00046633 0.00108317 -0.00163873 -0.00487577 0.00120571 0.00970159 0.00949961
internal_weight=0 9115 8857 3671 5186 2484 2702 438 689
internal_count=9220 9115 8857 3671 5186 2484 2702 438 689
cat_boundaries=0 2 5 8
cat_threshold=536870912 2147549184 17039364 278954532 24616 1157890340 1344832356 3237693
is_linear=0
shrinkage=0.1


Tree=61
num_leaves=10
num_cat=3
split_feature=2 26 10 19 6 2 18 19 20
split_gain=7.60052 2.10812 3.1138 2.95783 2.74667 2.70523 2.53532 2.27093 2.21958
threshold=0 1 4.5000000000000009 382.50000000000006 88.500000000000014 2 6.5000000000000009 25.500000000000004 71.000000000000014
decision_type=9 9 2 2 2 9 2 2 2
left_child=-1 2 6 4 5 -3 7 -2 -6
right_child=1 3 -4 -5 8 -7 -8 -9 -10
leaf_value=0.008917146996862314 0.0034934240486428529 0.0074592200027839006 -0.00066011847610473312 -0.017496990910508291 0.018851995263928029 -0.0076310040222872973 0.013364445720706764 -0.022601243813005812 -0.00015556735654459448
leaf_weight=862 354 102 4920 145 63 1037 305 36 1396
leaf_count=862 354 102 4920 145 63 1037 305 36 1396
internal_value=0 -0.000892616 0.000152805 -0.00316773 -0.00222933 -0.0059371 0.00647357 7.97531e-05 0.000396667
internal_weight=0 8358 5615 2743 2598 1139 695 390 1459
internal_count=9220 8358 5615 2743 2598 1139 695 390 1459
cat_boundaries=0 9 10 16
cat_threshold=0 2148540433 2215706648 2147484672 135274528 263232 1614876801 4198464 65600 29003 0 4194560 1024 0 128 67108864
is_linear=0
shrinkage=0.1


Tree=62
num_leaves=10
num_cat=6
split_feature=2 27 27 35 27 27 35 27 14
split_gain=6.46917 3.82865 2.52692 2.30441 6.34073 3.50009 2.91355 4.68296 3.99365
threshold=0 1 2 5.2857353797162627 3 4 1.8688348091416842 5 906300.00000000012
decision_type=9 9 9 2 9 9 2 9 2
left_child=-1 -2 -3 5 -5 6 7 -4 -8
right_child=1 2 3 4 -6 -7 8 -9 -10
leaf_value=0.0077830710767248642 -0.0063352159151056691 0.014424319505611145 -0.0011052135015616384 -0.0067107950299939104 0.0091945695181288502 0.00096452733606066331 0 -0.019581650501348954 -0.014783610063962531
leaf_weight=954 1101 109 377 340 748 3341 1767 274 209
leaf_count=954 1101 109 377 340 748 3341 1767 274 209
internal_value=0 -0.000872211 0 -0.000268402 0.00388682 -0.00109203 -0.00384574 -0.00980153 -0.00170472
internal_weight=0 8266 7165 7056 1088 5968 2627 651 1976
internal_count=9220 8266 7165 7056 1088 5968 2627 651 1976
cat_boundaries=0 9 12 14 17 20 23
cat_threshold=604110848 1048593 2148597784 2147483648 16384 1074529476 1614811297 16782400 524288 273711104 1614839874 1130757 671088640 2147549184 2147549184 335548928 4238336 1193431840 42467600 2107994 1140982304 0 10
is_linear=0
shrinkage=0.1


Tree=63
num_leaves=10
num_cat=1
split_feature=24 9 26 13 14 14 9 12 14
split_gain=1.59946 1.91943 2.6501 2.5623 2.48714 3.27166 2.03652 1.75934 1.69326
threshold=22.500000000000004 34.500000000000007 0 580700.00000000012 804100.00000000012 636350.00000000012 16.500000000000004 298550.00000000006 707200.00000000012
decision_type=2 2 9 2 2 2 2 2 2
left_child=-1 2 4 -4 5 -2 8 -8 -5
right_child=1 -3 3 6 -6 -7 7 -9 -10
leaf_value=-0.0092600087723395171 0 -0.00025176932279640348 -0.0055296902394648215 -0.025899278445022163 -0.001805753953709268 0.024365831693139755 0.018789669882703593 0 0.0015530260534214945
leaf_weight=182 72 8070 323 25 49 176 152 71 100
leaf_count=182 72 8070 323 25 49 176 152 71 100
internal_value=0 0.000207233 0.00443861 0.000243743 0.0121782 0.0170122 0.0067354 0.0127183 -0.000803483
internal_weight=0 9038 968 671 297 248 348 223 125
internal_count=9220 9038 968 671 297 248 348 223 125
cat_boundaries=0 1
cat_threshold=12444
is_linear=0
shrinkage=0.1


Tree=64
num_leaves=10
num_cat=3
split_feature=1 20 20 27 7 24 21 20 27
split_gain=3.06427 2.11287 2.85304 2.95579 3.29188 2.61634 2.37323 4.50571 4.5628
threshold=0 25.000000000000004 37.000000000000007 1 69.500000000000014 84.500000000000014 31.500000000000004 215.00000000000003 2
decision_type=9 2 2 9 2 2 2 2 9
left_child=-1 -2 5 6 -5 -3 7 -4 -9
right_child=1 2 3 4 -6 -7 -8 8 -10
leaf_value=0.016042670056444403 -0.0087893246896489346 0.012082765385833224 0 -0.012007769271505391 -0.0015163200489972449 -0.0058081544045425542 -0.0048085886619539352 0.0019142402129401438 0.015484312490508632
leaf_weight=106 284 347 3137 354 3116 74 565 794 425
leaf_count=106 284 347 3137 354 3116 74 565 794 425
internal_value=0 -0.00029831 0 -0.000427994 -0.00269181 0.00800728 0.00109194 0.00194974 0.00710961
internal_weight=0 9096 8812 8391 3470 421 4921 4356 1219
internal_count=9202 9096 8812 8391 3470 421 4921 4356 1219
cat_boundaries=0 13 16 19
cat_threshold=268435456 0 0 0 256 64 8 5 0 0 0 32768 134217728 1044385796 2621113134 52840 71303168 2148008202 1120
is_linear=0
shrinkage=0.1


Tree=65
num_leaves=10
num_cat=1
split_feature=1 20 20 4 17 4 5 4 4
split_gain=2.53664 1.70961 2.25443 2.21629 3.69074 2.24131 2.18506 2.17573 3.33229
threshold=0 25.000000000000004 37.000000000000007 58.962237768713358 56.500000000000007 58.851414003727605 8.9394382551613312 59.809140379736107 59.916321643876252
decision_type=9 2 2 2 2 2 2 2 2
left_child=-1 -2 6 4 5 -4 -3 -5 -9
right_child=1 2 3 7 -6 -7 -8 8 -10
leaf_value=0.014657952370797443 -0.007910405235439075 0 -0.014065656840338923 -0.0038388946528946674 0.0079945249164855986 0.010155305699587575 0.013437184391337943 0.0070136717949519358 -0.00082350246356839183
leaf_weight=105 284 182 145 1963 680 33 239 609 4962
leaf_count=105 284 182 145 1963 680 33 239 609 4962
internal_value=0 -0.000272172 0 -0.00038452 0.00434951 -0.00737381 0.00711349 -0.000975661 0
internal_weight=0 9097 8813 8392 858 178 421 7534 5571
internal_count=9202 9097 8813 8392 858 178 421 7534 5571
cat_boundaries=0 13
cat_threshold=0 0 0 0 256 64 8 5 0 0 0 32768 134217856
is_linear=0
shrinkage=0.1


Tree=66
num_leaves=10
num_cat=5
split_feature=27 35 27 27 35 27 35 26 29
split_gain=1.90382 1.5388 7.11475 4.50184 4.03058 4.14972 5.09395 3.9193 3.3034
threshold=0 2.249904835165133 1 2 4.2268071048866842 3 5.8245230014317348 4 11.500000000000002
decision_type=9 2 9 9 2 9 2 9 2
left_child=-1 2 -2 4 -3 -6 8 -4 -7
right_child=1 3 7 -5 5 6 -8 -9 -10
leaf_value=0.01281208428627085 0.0019925506323715601 -5.9478606893900147e-05 -0.02548048674693934 -0.001349488734030041 0.0017796673441458789 0.013624481714108348 0.034227191060489208 -0.0055859113692012519 -0.003867189476899598
leaf_weight=103 1518 1051 124 4141 671 352 118 1012 112
leaf_count=103 1518 1051 124 4141 671 352 118 1012 112
internal_value=0 -0.000233757 -0.00229039 0.000551987 0.00412754 0.0079852 0.0141919 -0.0083029 0.00855788
internal_weight=0 9099 2654 6445 2304 1253 582 1136 464
internal_count=9202 9099 2654 6445 2304 1253 582 1136 464
cat_boundaries=0 2 5 8 11 12
cat_threshold=536870912 2147549184 1094976000 1747223046 66572 439492992 109052264 8424304 268435584 67108904 33056 65568
is_linear=0
shrinkage=0.1


Tree=67
num_leaves=10
num_cat=2
split_feature=2 4 5 9 9 36 11 36 25
split_gain=4.42899 2.34619 3.07179 2.08703 5.05927 6.41018 4.20334 2.88347 3.19015
threshold=0 60.630547275496617 9.4114868296640868 131.50000000000003 167.50000000000003 1727.6387000416078 402850.00000000006 5057.0289750829897 1
decision_type=9 2 2 2 2 2 2 2 1
left_child=1 -1 -3 -2 5 -5 -7 -6 -9
right_child=3 2 -4 4 7 6 -8 8 -10
leaf_value=0.012873439762326803 -0.002035403945428733 -0.015554032702086712 0.0078819728035048001 -0.00099443524210798568 0.00038044211977142898 0.051060034930415693 0.01125872494680318 0.0013923398801693391 -0.01369669697604917
leaf_weight=389 4957 81 179 426 2128 36 503 167 336
leaf_count=389 4957 81 179 426 2128 36 503 167 336
internal_value=0 0.00782815 0 -0.000675923 0.00108724 0.00733461 0.0146444 -0.00105524 -0.00790804
internal_weight=0 649 260 8553 3596 965 539 2631 503
internal_count=9202 649 260 8553 3596 965 539 2631 503
cat_boundaries=0 9 10
cat_threshold=603979776 2147493904 88621072 2147483648 3145792 67109056 1610616865 4194304 524352 4
is_linear=0
shrinkage=0.1


Tree=68
num_leaves=10
num_cat=2
split_feature=1 5 12 5 25 17 7 4 8
split_gain=2.07431 1.41626 1.66266 1.30796 1.01711 1.03264 0.98544 2.35999 2.54083
threshold=0 5.3206782826921364 285550.00000000006 5.1250466366886664 1 18.500000000000004 95.500000000000014 58.962237768713358 79.500000000000014
decision_type=9 2 2 2 1 2 2 2 2
left_child=-1 2 3 -2 -5 -6 -3 -8 -9
right_child=1 6 -4 4 5 -7 7 8 -10
leaf_value=0.013143717355764218 0 -0.0015617697502399912 0 0 0 -0.021630019663827233 0.0063068164333728097 0.0057472267495903171 -0.00062434871967232547
leaf_weight=110 50 2221 223 65 36 137 711 713 4940
leaf_count=110 50 2221 223 65 36 137 711 713 4940
internal_value=0 -6.98055e-05 -0.00521451 -0.0102944 -0.0135349 -0.0176299 0.000190698 0.000863872 0.000109971
internal_weight=0 9096 511 288 238 173 8585 6364 5653
internal_count=9206 9096 511 288 238 173 8585 6364 5653
cat_boundaries=0 13 14
cat_threshold=4194304 0 0 20480 256 0 8 1 0 0 262144 0 134219776 4
is_linear=0
shrinkage=0.1


Tree=69
num_leaves=10
num_cat=3
split_feature=1 21 23 26 18 26 10 29 21
split_gain=1.82552 1.26753 2.46656 2.64452 2.33177 1.72902 1.7046 1.58765 1.56138
threshold=0 31.500000000000004 65.500000000000014 1 128.50000000000003 2 133.50000000000003 2.5000000000000004 25.500000000000004
decision_type=9 2 2 9 2 9 2 2 2
left_child=-1 6 5 -4 -5 -3 8 -6 -2
right_child=1 2 3 4 7 -7 -8 -9 -10
leaf_value=0.012381977853193844 -0.00030856097920603292 0 -0.007227094822321813 0.011751871205532768 0.0056238489818272435 -0.015217453759555861 0.0079352824716964997 -0.015216472162890713 0.0060365710217156867
leaf_weight=109 7453 101 270 246 44 223 282 69 409
leaf_count=109 7453 101 270 246 44 223 282 69 409
internal_value=0 -6.40166e-05 -0.00354868 0 0.00565978 -0.010638 0.000295562 -0.00363424 0
internal_weight=0 9097 953 629 359 324 8144 113 7862
internal_count=9206 9097 953 629 359 324 8144 113 7862
cat_boundaries=0 13 14 15
cat_threshold=4194304 0 0 16384 256 33554432 0 1 0 0 0 32768 134219904 18455 2058
is_linear=0
shrinkage=0.1


Tree=70
num_leaves=10
num_cat=3
split_feature=2 2 5 6 8 25 5 35 11
split_gain=4.06896 2.46743 3.60347 2.11225 1.97255 1.87689 1.56768 1.50945 2.82179
threshold=0 1 10.810617720879952 9.5000000000000018 30.500000000000004 2 13.766434334550601 4.135134555718313 509500.00000000006
decision_type=9 9 2 2 2 1 2 2 2
left_child=6 2 5 -3 7 -2 -1 8 -5
right_child=1 3 -4 4 -6 -7 -8 -9 -10
leaf_value=0.0088282294188514864 -0.053692377683522287 0.0094753360981386769 0.0020675226381159108 -0.025106106668898905 -0.00022379882416490775 -0.0073173281945111638 -0.0021566672749834411 0 0
leaf_weight=691 28 211 34 104 7763 52 94 162 67
leaf_count=691 28 211 34 104 7763 52 94 162 67
internal_value=0 -0.000553349 -0.0146272 -0.000295732 -0.000599158 -0.0284483 0.00692545 -0.00817284 -0.0147764
internal_weight=0 8421 114 8307 8096 80 785 333 171
internal_count=9206 8421 114 8307 8096 80 785 333 171
cat_boundaries=0 9 14 15
cat_threshold=0 3225430032 271056920 2147484672 134217920 1074266180 536875136 1048640 262208 4202528 2097152 1024 0 2147483648 1
is_linear=0
shrinkage=0.1


Tree=71
num_leaves=10
num_cat=2
split_feature=2 2 5 21 19 19 18 21 36
split_gain=3.62898 1.96288 3.1416 1.15229 1.07913 2.79984 2.47066 1.99848 2.46893
threshold=0 1 7.1703743091446261 1.0000000180025095e-35 60.500000000000007 69.500000000000014 34.500000000000007 10.500000000000002 2400.0947626031466
decision_type=9 9 2 2 2 2 2 2 2
left_child=3 2 -2 -1 6 -6 7 -3 -9
right_child=1 4 -4 -5 5 -7 -8 8 -10
leaf_value=0 -0.040745056229965486 0.00021008178183377687 0 0.0084050519161443567 0.0081567734107710864 -9.8698906912485251e-05 -0.012517510186823172 -0.0079691881653804718 0.0076232092907637123
leaf_weight=260 33 2783 81 642 448 4002 203 659 95
leaf_count=260 33 2783 81 642 448 4002 203 659 95
internal_value=0 -0.000584213 -0.0131647 0.00605714 -0.000345466 0.000644366 -0.0016289 -0.00089317 -0.00548491
internal_weight=0 8304 114 902 8190 4450 3740 3537 754
internal_count=9206 8304 114 902 8190 4450 3740 3537 754
cat_boundaries=0 9 14
cat_threshold=0 3222292496 73924632 2147484672 134242304 67895364 1610616961 1049664 262208 4202528 2097152 1024 0 2147483648
is_linear=0
shrinkage=0.1


Tree=72
num_leaves=10
num_cat=1
split_feature=2 35 5 6 19 10 5 15 8
split_gain=4.66424 2.17815 3.06686 2.96682 3.09131 2.87889 4.44411 3.50534 3.68682
threshold=0 1.4978661367769956 8.9394382551613312 234.50000000000003 288.50000000000006 28.500000000000004 13.766434334550601 710050.00000000012 190.50000000000003
decision_type=9 2 2 2 2 2 2 2 2
left_child=-1 2 -2 -3 -5 6 7 -4 -9
right_child=1 3 5 4 -6 -7 -8 8 -10
leaf_value=0.0064774935936791518 -0.010325350690942234 -0.0011460622828877666 -0.014202198715380136 0.0087878087311543569 -0.0005478426834613486 -0.0097646160868220706 -0.012002142084486174 0.014441822995992969 -0.0053491622243961087
leaf_weight=940 554 5519 55 689 582 262 149 409 89
leaf_count=940 554 5519 55 689 582 262 149 409 89
internal_value=0 -0.00091056 -0.00434325 -8.67646e-05 0.00420467 -0.000498896 0.00240111 0.00699055 0.010118
internal_weight=0 8308 1518 6790 1271 964 702 553 498
internal_count=9248 8308 1518 6790 1271 964 702 553 498
cat_boundaries=0 9
cat_threshold=512 2147485969 2171666456 2147483648 2113536 1073742016 1610616833 5248128 327680
is_linear=0
shrinkage=0.1


Tree=73
num_leaves=10
num_cat=3
split_feature=2 27 2 18 23 16 6 6 29
split_gain=4.04173 3.05603 2.70094 3.89246 4.38631 3.25535 2.62401 2.60239 3.24166
threshold=0 1 2 74.500000000000014 23.500000000000004 395150.00000000006 88.500000000000014 215.50000000000003 2.5000000000000004
decision_type=9 9 9 2 2 2 2 2 2
left_child=7 2 -2 4 6 -5 -4 -1 -9
right_child=1 -3 3 5 -6 -7 -8 8 -10
leaf_value=0.011141502615011822 0.0017810764387416356 8.7467662154339194e-05 -0.0079888123205009726 -0.014592208197998079 -0.018746677965833358 0.014210775363404074 0.0065716323039341834 -0.025140739856375202 0.0049673188233198854
leaf_weight=499 373 7080 443 45 376 134 144 48 106
leaf_count=499 373 7080 443 45 376 134 144 48 106
internal_value=0 -0.000733059 -0.00479997 -0.00728641 -0.010012 0.00478061 -0.00374936 0.00735946 -0.00187308
internal_weight=0 8595 1515 1142 963 179 587 653 154
internal_count=9248 8595 1515 1142 963 179 587 653 154
cat_boundaries=0 9 12 20
cat_threshold=67240448 2147493904 358678552 2147483648 2105344 67108928 541069313 5246976 262144 273055872 2019557442 16318472 0 1073758465 0 0 16384 1073741824 0 64
is_linear=0
shrinkage=0.1


Tree=74
num_leaves=10
num_cat=0
split_feature=12 12 12 8 4 35 5 10 5
split_gain=1.34801 1.55137 2.41345 1.90594 4.1852 4.22475 3.1449 3.40304 1.81401
threshold=250250.00000000003 262550.00000000006 267850.00000000006 93.500000000000014 61.49399503502891 4.9015572891946713 8.7471122269795423 45.500000000000007 9.7533869106036999
decision_type=2 2 2 2 2 2 2 2 2
left_child=-1 3 8 4 5 6 -2 -8 -3
right_child=1 2 -4 -5 -6 -7 7 -9 -10
leaf_value=-0.005240366139472155 0 -0.010832068733087761 0.0001162921890273439 8.7501089944516246e-05 -0.00042383861853971592 0 0.036813292085870586 0 0
leaf_weight=486 65 371 6432 1058 253 84 135 28 336
leaf_count=486 65 371 6432 1058 253 84 135 28 336
internal_value=0 0.000153081 -0.000433829 0.00297612 0.00769168 0.0155283 0.0226993 0.0302267 -0.00599281
internal_weight=0 8762 7139 1623 565 312 228 163 707
internal_count=9248 8762 7139 1623 565 312 228 163 707
is_linear=0
shrinkage=0.1


Tree=75
num_leaves=10
num_cat=2
split_feature=2 9 6 2 7 9 9 20 9
split_gain=3.47214 2.226 2.96266 1.92213 2.45429 1.49585 6.27026 2.79931 2.35099
threshold=0 192.50000000000003 48.500000000000007 1 215.50000000000003 140.50000000000003 167.50000000000003 177.00000000000003 39.500000000000007
decision_type=9 2 2 9 2 2 2 2 2
left_child=1 2 -1 4 -2 8 7 -7 -5
right_child=3 -3 -4 5 -6 6 -8 -9 -10
leaf_value=0 0 -0.0012088690435697659 0.014448545847294339 0.0020022077825327294 -0.032671604464970014 0.00081521832840475081 -0.00092185215662043865 0.015823213834557221 -0.002810903875540918
leaf_weight=160 63 189 396 1274 45 276 2563 370 3912
leaf_count=160 63 189 396 1274 45 276 2563 370 3912
internal_value=0 0.00637131 0.00976735 -0.000696542 -0.0134996 -0.000469341 0.00115829 0.0100177 -0.00155295
internal_weight=0 745 556 8503 108 8395 3209 646 5186
internal_count=9248 745 556 8503 108 8395 3209 646 5186
cat_boundaries=0 9 17
cat_threshold=536871424 3222300672 17383432 0 2097312 786624 1610616961 4195328 262208 4194304 2097152 1024 0 2147483648 0 0 536870912
is_linear=0
shrinkage=0.1


Tree=76
num_leaves=10
num_cat=2
split_feature=1 24 9 19 26 11 10 19 17
split_gain=1.77562 1.39702 1.83139 2.99306 2.44698 2.81931 2.17478 2.02016 2.00247
threshold=0 26.500000000000004 39.500000000000007 14.500000000000002 1 498600.00000000006 7.5000000000000009 10.500000000000002 39.500000000000007
decision_type=9 2 2 2 9 2 2 2 2
left_child=-1 -2 3 4 7 -6 -5 -3 -4
right_child=1 2 8 6 5 -7 -8 -9 -10
leaf_value=0.011788519360231633 -0.00721617759713419 0.0077815034588389481 -0.0037549461522797794 0.015896411808394916 -0.01308766722955737 0.014466414961840538 0 -0.008889664396201381 0.00033823249414672695
leaf_weight=118 266 384 1451 273 223 32 164 70 6203
leaf_count=118 266 384 1451 273 223 32 164 70 6203
internal_value=0 -4.67539e-05 0.000125381 0.00388632 0 -0.00778771 0.010397 0.00425421 -0.000386535
internal_weight=0 9066 8800 1146 709 255 437 454 7654
internal_count=9184 9066 8800 1146 709 255 437 454 7654
cat_boundaries=0 13 14
cat_threshold=0 0 0 20480 256 4194304 0 5 0 0 0 32768 134217856 28698
is_linear=0
shrinkage=0.1


Tree=77
num_leaves=10
num_cat=3
split_feature=2 2 4 15 35 9 17 25 16
split_gain=3.42061 2.03648 4.32848 3.67068 1.51397 1.70695 1.3858 1.21152 2.26513
threshold=0 1 62.738023771552115 782600.00000000012 1.2424533248940004 217.50000000000003 323.50000000000006 2 439950.00000000006
decision_type=9 9 2 2 2 2 2 1 2
left_child=-1 2 3 -2 5 6 7 8 -3
right_child=1 4 -4 -5 -6 -7 -8 -9 -10
leaf_value=0.0060033697670093967 -0.046757987900062747 -0.0027256838152247063 0.011983396604314023 0 0.00027786670306041825 -0.01398334485766245 0.015013004877917178 0.00010479229840867392 -0.023096846228596014
leaf_weight=879 46 568 24 34 6814 146 41 559 73
leaf_count=879 46 568 24 34 6814 146 41 559 73
internal_value=0 -0.000515873 -0.0138684 -0.0282554 -0.000282132 -0.00331781 -0.00174725 -0.00264648 -0.00565708
internal_weight=0 8305 104 80 8201 1387 1241 1200 641
internal_count=9184 8305 104 80 8201 1387 1241 1200 641
cat_boundaries=0 9 18 19
cat_threshold=536870912 67857 2421243912 2147483648 135266400 525508 541069440 5242880 524352 4194336 2097152 1024 0 2147483648 0 0 0 262144 2
is_linear=0
shrinkage=0.1


Tree=78
num_leaves=10
num_cat=4
split_feature=2 24 36 2 7 36 1 26 31
split_gain=3.05212 3.36961 1.78235 1.6789 2.15366 1.59209 1.48016 1.79505 3.69749
threshold=0 209.50000000000003 1362.5254136145234 1 215.50000000000003 4435.1618192849201 2 3 1.5000000000000002
decision_type=9 2 2 9 2 2 9 9 2
left_child=1 5 -3 4 -2 -1 -5 8 -8
right_child=3 2 -4 6 -6 -7 7 -9 -10
leaf_value=0.027839771485484471 0 -0.024021127461147845 0.0062261148912793798 0.011056821445098737 -0.029902261250133497 0 0.0039009187489638881 -0.0011028988686895987 -0.0063857410477366735
leaf_weight=105 59 28 43 109 45 28 2057 6312 398
leaf_count=105 59 28 43 109 45 28 2057 6312 398
internal_value=0 0.011896 -0.000184503 -0.000174505 -0.012234 0.0221853 0 -0.000169748 0.00206523
internal_weight=0 204 71 8980 104 133 8876 8767 2455
internal_count=9184 204 71 8980 104 133 8876 8767 2455
cat_boundaries=0 7 16 29 30
cat_threshold=0 2048 65536 0 0 64 4096 4194336 2097152 1024 0 2147483648 0 0 0 262144 0 0 0 20480 256 4194304 0 5 0 0 262144 0 134217856 18689
is_linear=0
shrinkage=0.1


Tree=79
num_leaves=10
num_cat=3
split_feature=1 6 6 26 22 23 25 23 23
split_gain=1.31219 1.21109 2.62517 3.55203 2.48373 2.29807 3.78159 1.71529 1.41942
threshold=0 462.50000000000006 379.50000000000006 1 33.500000000000007 99.500000000000014 2 82.500000000000014 95.500000000000014
decision_type=9 2 2 9 2 2 1 2 2
left_child=-1 2 7 4 -4 6 -3 -2 -5
right_child=1 5 3 8 -6 -7 -8 -9 -10
leaf_value=0.010290741574152693 3.7219039085454312e-05 -0.029591957873545224 0.016563834157047205 0.026222922527594752 -0.015499773962182878 0 0 -0.01105411371452948 0
leaf_weight=114 8241 83 29 115 73 246 85 141 57
leaf_count=114 8241 83 29 115 73 246 85 141 57
internal_value=0 -4.2842e-05 0.000166094 0.00981616 -0.00231496 -0.00535879 -0.0144066 -0.000102614 0.0183556
internal_weight=0 9070 8656 274 102 414 168 8382 172
internal_count=9184 9070 8656 274 102 414 168 8382 172
cat_boundaries=0 13 14 15
cat_threshold=2151677952 0 0 16384 256 4194304 0 1 0 0 262144 0 134217856 20616 2
is_linear=0
shrinkage=0.1


Tree=80
num_leaves=10
num_cat=3
split_feature=2 27 27 5 18 24 10 24 6
split_gain=2.82462 5.52416 2.52032 2.17691 2.48444 2.0735 1.86281 3.30771 3.50538
threshold=0 1 2 5.9893643462622306 1.0000000180025095e-35 481.00000000000006 79.500000000000014 353.50000000000006 161.50000000000003
decision_type=9 9 9 2 2 2 2 2 2
left_child=6 3 -3 -2 -5 -6 -1 8 -8
right_child=1 2 -4 4 5 -7 7 -9 -10
leaf_value=0.0068064248605561872 0 0.013046226197296784 0 0.0045071824666258831 -0.016797088864202465 0 0 0.010151904731443562 -0.037826816481036273
leaf_weight=919 124 140 7327 46 441 58 39 59 45
leaf_count=919 124 140 7327 46 441 58 39 59 45
internal_value=0 -0.000524501 0.000209356 -0.00917489 -0.012099 -0.0144151 0.00492925 -0.00404966 -0.0186891
internal_weight=0 8136 7467 669 545 499 1062 143 84
internal_count=9198 8136 7467 669 545 499 1062 143 84
cat_boundaries=0 9 12 14
cat_threshold=67240448 4262161 84476952 0 2113664 1074004036 1610682400 4096 589888 1346371584 1346371586 65536 671088640 2147811344
is_linear=0
shrinkage=0.1


Tree=81
num_leaves=10
num_cat=5
split_feature=2 27 35 27 16 2 27 10 8
split_gain=2.67391 2.19783 2.31635 1.56292 3.09934 4.85245 2.91806 2.72281 2.74031
threshold=0 1 4.791641144189394 2 422300.00000000006 3 4 38.500000000000007 69.500000000000014
decision_type=9 9 2 9 2 9 9 2 2
left_child=-1 2 -2 4 5 -3 7 8 -6
right_child=1 3 -4 -5 6 -7 -8 -9 -10
leaf_value=0.014560349377310178 0.024085574353033101 0.003755902621271109 0 0.00098436651869234968 -0.00083082352134516795 -0.0049150941634645267 -0.0018520108999344129 0 0.019909168378090324
leaf_weight=116 80 772 24 4400 40 2897 434 199 236
leaf_count=116 80 772 24 4400 40 2897 434 199 236
internal_value=0 -8.80881e-05 0.0136395 -0.000305708 -0.00163047 -0.00298698 0.00339578 0.0088678 0.0154837
internal_weight=0 9082 104 8978 4578 3669 909 475 276
internal_count=9198 9082 104 8978 4578 3669 909 475 276
cat_boundaries=0 9 11 14 23 26
cat_threshold=0 2048 65536 0 2097152 262208 0 0 64 536870912 2147549184 1414824224 2053673026 6417670 67108864 3225485332 271056896 1024 16608 0 4097 17825920 65536 335806464 1478524928 9218
is_linear=0
shrinkage=0.1


Tree=82
num_leaves=10
num_cat=4
split_feature=2 4 1 2 10 28 35 28 26
split_gain=2.30483 2.3657 1.45241 1.39904 2.63286 1.27845 2.67625 3.77992 2.8086
threshold=0 62.390362435191612 1 2 33.500000000000007 37.500000000000007 5.8874909948915191 18.500000000000004 3
decision_type=9 2 9 9 2 2 2 2 9
left_child=1 -1 -2 4 -4 6 -5 -8 -9
right_child=2 -3 3 5 -6 -7 7 8 -10
leaf_value=0.025363208689001139 0.010697358784346377 0 -0.028512653022556008 -0.00034529003844214687 0 -0.013539649970251189 -0.013007445973053916 0 0.018294906142437072
leaf_weight=76 112 29 52 8411 52 70 55 105 236
leaf_count=76 112 29 52 8411 52 70 55 105 236
internal_value=0 0.0141547 -7.04155e-05 -0.000260033 -0.0112973 -7.40602e-05 0 0.00806531 0.0126133
internal_weight=0 105 9093 8981 104 8877 8807 396 341
internal_count=9198 105 9093 8981 104 8877 8807 396 341
cat_boundaries=0 9 22 30 31
cat_threshold=0 2048 65536 0 2097152 68 0 0 64 4194304 0 0 16384 256 4194304 8 5 0 0 0 0 134219904 0 2097152 2147500032 0 2147483648 0 0 1048576 1034
is_linear=0
shrinkage=0.1


Tree=83
num_leaves=10
num_cat=2
split_feature=27 5 31 23 18 23 27 18 14
split_gain=1.92994 3.6593 4.88317 6.46734 4.88976 3.92405 3.89715 2.80535 5.50163
threshold=0 8.5930726947499227 1.5000000000000002 82.500000000000014 82.500000000000014 42.500000000000007 1 39.500000000000007 785050.00000000012
decision_type=9 2 2 2 2 2 9 2 2
left_child=1 6 3 4 7 -4 -1 8 -3
right_child=-2 2 5 -5 -6 -7 -8 -9 -10
leaf_value=-0.010037781837839908 -0.0005450328919072207 0.018134533593243015 -0.014437088477195097 -0.017119831684447809 -0.011299295090971266 0.023007266825827651 0.0079123214357595655 0.026971085724583118 -0.0023483344223992615
leaf_weight=320 7708 327 155 66 56 28 162 208 168
leaf_count=320 7708 327 155 66 56 28 162 208 168
internal_value=0 0.00336939 0.00695002 0.0104232 0.0133346 -0.00656633 -0.00323589 0.0158543 0.0103912
internal_weight=0 1490 1008 825 759 183 482 703 495
internal_count=9198 1490 1008 825 759 183 482 703 495
cat_boundaries=0 3 5
cat_threshold=2858489856 2214920720 576 2151682048 67109376
is_linear=0
shrinkage=0.1


Tree=84
num_leaves=10
num_cat=1
split_feature=27 36 12 21 7 4 4 4 13
split_gain=1.57066 3.34027 1.63634 1.49707 1.24181 1.15478 1.61379 2.2555 1.95704
threshold=0 480.81379958658084 250850.00000000003 33.500000000000007 56.500000000000007 59.132641091434202 59.415873097157252 59.749355502506511 647600.00000000012
decision_type=9 2 2 2 2 2 2 2 2
left_child=1 -1 -3 4 -4 -6 -7 -8 -9
right_child=-2 2 3 -5 5 6 7 8 -10
leaf_value=-0.012098506553891948 -0.00056824404074816849 -0.0069083407524264742 0 -0.0023087951895206064 0 0.03897905003651872 -0.010862808184704439 0.017133026539734836 0
leaf_weight=95 8394 49 98 57 70 37 25 288 77
leaf_count=95 8394 49 98 57 70 37 25 288 77
internal_value=0 0.00403642 0.00683965 0.00847388 0.0101654 0.0121942 0.0141463 0.0107853 0.0133416
internal_weight=0 796 701 652 595 497 427 390 365
internal_count=9190 796 701 652 595 497 427 390 365
cat_boundaries=0 2
cat_threshold=710938628 2147549712
is_linear=0
shrinkage=0.1


Tree=85
num_leaves=10
num_cat=2
split_feature=27 5 21 24 31 15 14 27 14
split_gain=1.24297 4.72856 5.01441 3.80725 3.59109 2.46518 1.54898 6.89445 5.03193
threshold=0 9.4114868296640868 10.500000000000002 75.500000000000014 1.5000000000000002 564900.00000000012 837200.00000000012 1 861700.00000000012
decision_type=9 2 2 2 2 2 2 9 2
left_child=1 5 3 -3 -5 -1 -2 -8 -9
right_child=6 2 -4 4 -6 -7 7 8 -10
leaf_value=-0.035076353506913092 -0.0012610788218798477 0.00021286958585970051 0 0.037765267339607236 0 -0.0010510273552452724 0.0085963068540108063 0.0074349232094568707 -0.0090690537729417979
leaf_weight=26 6640 103 236 122 41 326 841 240 615
leaf_count=26 6640 103 236 122 41 326 841 240 615
internal_value=0 0.0034324 0.00996818 0.0193915 0.0291063 -0.00467783 -0.000534307 0.00207688 -0.00393206
internal_weight=0 854 502 266 163 352 8336 1696 855
internal_count=9190 854 502 266 163 352 8336 1696 855
cat_boundaries=0 2 5
cat_threshold=710940676 2147811856 2231370272 369262606 8746
is_linear=0
shrinkage=0.1


Tree=86
num_leaves=10
num_cat=2
split_feature=1 27 15 14 11 4 21 15 15
split_gain=1.2673 1.28404 2.6822 2.34661 3.14368 2.47569 2.67498 1.80134 3.05367
threshold=0 1 500750.00000000006 784250.00000000012 486350.00000000006 59.911914260758557 6.5000000000000009 576250.00000000012 564900.00000000012
decision_type=9 9 2 2 2 2 2 2 2
left_child=-1 2 -2 5 -5 -4 -7 8 -3
right_child=1 7 3 4 -6 6 -8 -9 -10
